432 200
plane -0.068367 0.056579 -0.302169 -0.309658 -0.414575 0.128914 -0.02038 0.51189 -0.281543 -0.405791 -0.077726 -0.265106 0.230549 -0.169473 0.342196 0.041804 0.203575 0.049175 -0.347589 -0.002515 0.205513 -0.076425 -0.235861 0.266306 -0.371587 -0.814201 0.069843 0.038741 -0.389509 -0.038505 0.138458 0.219574 -0.133888 -0.033484 -0.18054 0.04238 0.046393 -0.500079 0.166002 -0.032291 0.084158 0.069807 0.053737 -0.17849 -0.089987 -0.061289 0.580921 -0.107525 0.285449 -0.090241 0.243356 0.055711 -0.281929 0.077573 0.118973 0.374628 -0.059957 0.254619 -0.017538 0.495534 -0.279411 -0.094018 -0.214334 -0.566105 -0.380656 -0.101601 0.079403 0.05105 -0.002324 0.016744 0.161763 0.135563 -0.132659 -0.134625 -0.087237 -0.020762 0.280115 -0.227012 0.033042 0.096652 -0.295102 -0.14889 0.00887 -0.21671 0.359429 -0.216098 0.239112 -0.144719 0.178855 0.204647 -0.085924 -0.035434 -0.077948 -0.020325 -0.108803 0.154723 -0.05032 0.30703 -0.084014 0.542648 0.148942 0.161528 0.416887 -0.240151 0.686432 0.031223 -0.222171 0.122779 0.353455 -0.041093 0.01104 -0.170862 -0.110511 -0.072073 0.208863 0.044823 -0.166702 -0.156512 -0.113558 0.2772 0.176463 0.246603 0.040193 -0.074379 -0.148861 -0.036463 -0.40657 0.418584 0.641732 -0.306844 -0.318032 -0.335865 0.025646 -0.432731 -0.216776 -0.220272 -0.295636 -0.236842 0.352954 -0.066609 0.632927 0.253424 -0.017507 0.208173 0.026982 -0.216006 -0.302789 -0.12968 0.47603 -0.062491 0.25072 0.405153 0.036825 -0.17847 0.186955 -0.405603 0.024416 0.134834 0.109065 0.148712 0.39112 0.050485 0.140155 0.163063 -0.416564 -0.14222 -0.103288 0.111904 -0.379314 -0.067845 -0.768844 0.403043 -0.624705 0.106951 -0.41316 -0.340014 -0.077918 -0.448203 0.404901 -0.050813 0.089521 0.165603 -0.214846 -0.174566 0.256842 -0.049691 -0.044424 0.51509 0.567106 0.228698 0.115161 0.147818 -0.016476 0.148482 0.294968 0.341737 0.431885 -0.287744 0.031177 -0.322542
stupid -0.340118 0.153585 -0.382604 -0.291644 0.238247 -0.099679 -0.243305 0.511493 0.145766 -0.003022 -0.20395 -0.079305 -0.083514 -0.253922 -0.409783 0.084033 -0.158362 0.001519 0.255516 -0.140896 -0.020378 -0.12432 -0.151342 0.059807 0.048036 0.039232 -0.058196 0.327195 0.007345 0.329907 0.011697 0.118195 0.111404 -0.09866 -0.074241 -0.108467 0.004518 0.098936 0.092948 0.349432 -0.060366 -0.301145 0.141196 -0.347557 -0.282651 -0.150442 0.201843 -0.160448 0.16625 0.066257 0.110578 0.403675 -0.107318 0.136318 -0.035672 0.222945 -0.152972 0.384387 0.282733 -0.239192 -0.001756 -0.069683 0.034789 -0.317864 -0.002229 0.031586 -0.165664 -0.055729 0.109955 -0.12507 -0.181952 0.304913 -0.397118 -0.154035 0.048105 0.14881 0.51532 0.215915 0.04746 -0.107367 0.085544 0.313446 0.044812 -0.230352 -0.112682 -0.250233 -0.138869 0.301818 -0.030398 -0.360812 0.250751 0.170324 -0.231661 -0.105643 0.535292 0.528046 0.002012 0.532379 -0.049293 -0.093784 0.136005 -0.034206 0.163203 -0.273642 0.576799 -0.341339 -0.055991 0.239732 0.079722 -0.075675 0.188769 0.454794 0.006763 -0.028575 0.265935 0.172724 -0.169785 -0.049627 -0.158707 0.08823 0.107965 -0.062527 -0.093514 0.009186 0.086041 -0.028392 0.242165 -0.003229 0.484131 -0.332121 -0.165161 0.069781 -0.143455 -0.336612 0.43045 -0.113333 0.153627 0.192615 -0.242258 0.372585 0.478039 -0.264433 -0.344934 0.187609 -0.117144 0.043666 0.386506 0.257412 0.239247 0.245172 -0.134432 0.156505 0.221684 0.194975 -0.028393 0.262955 -0.094258 0.007432 0.32407 0.029225 0.126236 0.032952 0.184665 -0.37093 -0.16115 -0.026303 -0.077719 0.076476 -0.187547 0.004303 0.132738 0.402891 -0.409962 0.227698 0.21277 -0.313527 0.355145 0.07915 0.053093 0.013468 -0.036696 -0.279519 0.085671 0.16503 0.333061 0.594463 0.139382 -0.150171 -0.067526 -0.309762 -0.042337 0.154699 0.031431 0.04619 -0.096153 0.021429 0.037339 -0.080594 -0.06913 -0.224611
egg 0.362006 0.253433 0.42985 -0.126394 -0.101792 -0.226265 -0.007423 0.105776 -0.255441 0.322069 -0.35803 -0.230209 -0.009978 -0.269711 -0.607204 0.173701 0.007671 0.022045 0.196317 -0.184201 -0.024088 0.062944 -0.09744 -0.063862 0.412409 -0.327116 -0.387116 -0.056588 0.221339 -0.156367 -0.103304 0.151673 0.0684 0.443513 -0.095729 0.089227 0.228301 -0.16646 0.228995 0.263622 0.211291 0.055557 0.266969 0.383742 -0.024583 -0.275988 0.103698 -0.066942 0.396331 -0.003223 0.374673 0.015312 0.023395 -0.126698 -0.07134 -0.029427 -0.189774 0.03327 -0.143713 0.261411 0.24804 0.072992 0.027071 -0.2551 -0.235976 -0.397381 -0.112451 -0.098495 -0.119473 -0.151766 0.139859 0.180991 -0.60835 0.08129 -0.245366 0.168457 0.318602 0.292534 0.340187 -0.407588 -0.324676 0.439359 0.010432 0.106567 -0.165495 -0.093721 0.043593 0.122303 0.177271 0.105312 0.131013 -0.19543 0.199196 0.00385 0.113583 0.177572 -0.319934 0.857347 -0.12712 -0.490447 0.244059 -0.110436 -0.086196 -0.257301 0.138901 -0.061823 -0.242418 -0.261176 -0.240789 0.193346 0.070921 -0.335722 -0.351502 -0.004994 0.163213 -0.122594 -0.159776 0.150078 -0.128817 0.307535 0.227465 0.073068 -0.239517 -0.036053 0.181749 -0.115849 0.059608 -0.022377 0.32348 -0.20697 -0.01621 0.285237 -0.162446 -0.180051 0.061979 -0.288894 0.071061 0.182661 -0.037872 0.181539 0.243112 0.030901 -0.287379 0.086111 0.200418 0.417782 0.244805 -0.06787 -0.034876 -0.065378 0.036892 -0.123678 -0.044346 -0.199082 0.112217 0.238141 -0.064523 -0.18064 0.020371 -0.013468 -0.287728 -0.071778 0.245425 -0.086324 -0.281461 -0.025191 -0.169548 -0.195293 -0.081674 0.275016 -0.251459 0.263086 -0.278831 0.107396 0.299346 0.279313 -0.278023 -0.01783 -0.194531 0.223857 0.485691 0.076287 0.23786 -0.160177 -0.311784 7.1E-4 -0.17148 -0.119351 0.169478 0.126007 -0.63293 -0.123063 -0.534873 0.442325 0.053667 0.376484 0.153986 -0.412053 -0.127236 -0.129785
year -0.074344 0.019966 0.102932 -0.198089 0.311298 0.09782 -0.071278 0.121875 -0.083812 -0.215448 -0.105926 -0.017688 0.027659 0.188776 0.162899 0.285061 -0.028387 0.187011 -0.055166 0.00774 0.094359 0.106716 -0.041357 -0.237158 -0.002665 -0.14492 -0.06763 0.016117 0.070131 -0.116607 -0.380923 0.055044 -0.342105 0.120371 0.178928 -0.257828 -0.165071 -0.150535 -0.152551 -0.176903 -0.18257 -0.06269 0.013512 0.017784 0.259472 -0.151758 -0.08297 0.067243 -0.003976 -0.170502 -0.156245 0.33177 0.08969 0.222442 -0.039586 0.053325 -0.069269 0.278312 -0.195317 0.299776 -0.170049 -0.343556 -0.038831 -0.486649 0.291743 -0.229858 -0.090689 -0.118096 0.056958 -0.202255 0.114298 -0.015958 -0.071434 -0.122217 -0.017249 0.221625 -0.008715 -0.397207 0.078039 -0.284872 -0.160311 0.218045 0.266227 -0.232858 -0.107954 0.168521 0.261619 0.3136 0.355608 -0.083312 -0.058059 -0.192261 -0.515848 0.134953 0.294684 0.006103 0.02034 -0.137287 -0.291129 0.050666 0.110782 -0.151212 0.004422 -0.019351 0.146106 -0.02251 0.143234 0.111372 0.073386 0.187532 -0.147048 -0.195987 -0.210697 0.047554 -0.149559 -0.149571 -0.223448 0.018139 -0.02893 0.093704 -0.059076 -0.15804 -0.099213 -0.025034 -0.052326 -0.23643 0.194277 0.173639 0.050578 -0.102336 -0.537114 -0.247242 0.013843 0.053594 0.271922 -0.477747 0.108276 0.03253 -0.065473 0.263637 0.418299 0.211825 -0.231716 -0.064136 -0.073559 0.046658 0.295027 0.187968 0.05017 0.211185 0.195545 -0.051503 0.08578 0.148509 -0.434292 0.14533 -0.021904 -0.136012 0.035354 -0.137145 -0.083937 0.058454 -0.135518 -0.252767 0.125301 -0.1099 -0.262179 0.025733 0.255183 0.105051 0.058189 -0.276177 -0.261145 0.065313 -0.138617 0.036425 -0.322163 -0.345215 -0.086154 -0.136532 0.172705 -0.213543 0.042934 -0.056145 0.117654 0.054632 -0.002554 -0.034718 0.065248 0.177942 -0.112556 -0.165033 -0.252425 0.194473 -0.117169 0.023046 -0.130584 0.001356 0.307962 -0.174526
psychiatry -0.146092 0.070837 -0.089629 0.102853 0.134526 0.059134 -0.570541 0.321771 0.191395 0.066895 0.089143 -0.281988 0.019285 -0.199711 -0.04282 0.132793 0.205896 0.157191 -0.081442 -0.086336 -0.0223 0.071621 -0.730593 0.079763 -0.10864 0.112804 -0.003735 -0.130405 0.210132 -0.232136 0.354875 0.183362 0.093772 0.034593 -0.001611 -0.03446 0.173605 -0.172933 0.097323 0.216154 0.010083 -0.029966 0.343287 -0.142098 -0.012606 -0.238516 0.029119 -0.217073 0.183658 0.174394 0.261152 -0.042233 0.044006 0.042067 0.139387 0.247756 -0.078757 0.086967 0.005635 -0.056944 -0.147667 0.297302 -0.120205 -0.216461 -0.017028 -0.162383 0.012078 -0.013384 0.212794 0.013846 0.202026 -0.1827 -0.302096 -0.125776 -0.281261 -0.303086 0.199934 0.216811 -0.020779 0.107228 -0.056799 0.243024 -0.093719 0.19198 -0.30204 0.268909 0.642729 -0.013564 -0.074737 0.100457 -0.012005 0.043397 -0.193194 -0.057461 0.284631 0.123065 0.190013 0.319692 0.129427 -0.368674 0.011755 0.345838 -0.064649 0.280377 0.575804 -0.071942 -0.090251 -0.096859 -0.00392 0.048877 -0.052057 0.259399 -0.160991 0.081839 0.191505 0.158274 -0.245514 -0.055993 -0.280737 0.131832 0.026769 0.020398 -0.175677 0.182649 -0.153238 0.132558 0.16618 0.207697 0.277955 -0.509728 -0.116314 -0.025962 -0.344412 0.032638 0.121578 -0.032185 0.521003 0.268099 -0.241959 0.585299 0.092048 -0.131049 -0.239565 0.668749 -0.294261 0.084607 0.681075 -0.153017 0.077014 0.180221 0.328932 0.182118 -0.243875 0.451928 0.15315 0.069809 -0.320544 -0.426872 -0.149153 0.076078 -0.406731 0.444082 0.164593 -0.173066 0.257395 0.012445 -0.026867 -0.092929 0.240848 0.281016 -0.378894 0.245406 -0.092906 -0.214483 0.021856 -0.204237 -0.057014 -0.02248 -0.101392 -0.156719 0.243961 0.142109 0.275837 0.125182 0.140204 0.127944 -0.416646 0.345917 0.016132 -0.007714 -0.134925 -0.311191 0.064385 0.117761 0.125494 0.052129 0.126293 -0.232976 0.212036 -0.058661
asylum -0.189239 -0.078559 0.037403 -0.305396 0.227613 0.309971 -0.705061 0.477148 -0.222341 -0.097121 -0.267552 -0.168576 0.262339 -0.530745 0.19719 -0.016542 0.096396 0.180926 -0.507186 -0.151373 -0.348972 0.336809 -0.128236 0.254953 -0.048461 -0.17846 -0.344137 -0.17228 -0.414104 0.061319 0.149503 -0.275438 -0.142931 0.51037 0.227885 -0.102401 0.250679 -0.354572 0.260289 0.3857 0.057412 -0.134118 0.181325 0.037555 -0.379798 0.087013 0.383537 0.322807 -0.099671 -0.197707 -0.282803 0.030459 0.009008 -0.094989 -0.436942 0.490725 -0.514138 0.499006 -0.023311 0.305009 -3.8E-5 0.07787 -0.342475 -0.780186 0.243965 0.129699 -0.12405 -0.411292 -0.114322 -0.335982 -0.066443 0.477647 -0.4468 0.026939 0.193352 0.106496 -0.239022 -0.158799 -0.143583 -0.215839 -0.460109 0.064245 0.033519 0.148725 -0.061137 -0.185371 0.403572 0.218577 0.12766 -0.081388 0.197985 -0.014713 0.011577 -0.262099 -7.7E-4 -0.130369 0.023533 -0.304973 0.052991 0.436756 0.205421 0.147278 -0.108313 -0.327665 0.25552 -0.300848 0.080108 -0.004929 0.31861 -0.032153 0.016863 0.264192 -0.101721 0.113793 0.292542 -0.056089 -0.188154 -0.031179 0.168318 0.193738 0.194161 -0.131765 0.216897 -0.24721 -0.121415 -0.236838 0.38187 0.192434 0.270215 -0.265474 -0.473575 -0.297255 -0.01294 -0.42818 -0.335661 -0.401836 0.198759 -0.075397 -0.18789 0.156518 0.184727 0.115622 -0.048841 0.088169 -0.147232 -0.215641 0.498781 -0.006893 0.281099 0.20586 0.126518 0.09134 0.144577 -0.058013 -0.105078 0.035989 -0.210912 -0.044908 -0.100478 0.476182 -0.068218 -0.162349 -0.057076 -0.481637 -0.13086 0.2493 -0.309695 -0.098374 -0.225807 0.004415 -0.122622 0.082314 -0.309435 -0.187276 -0.08082 0.334996 -0.125426 -0.27289 -0.369258 0.003589 -0.307846 -0.183946 0.063442 -0.513214 0.047121 -0.113847 -0.114556 -0.242289 0.137998 -0.368918 0.468556 -0.19105 -0.352534 0.111954 -0.136206 0.027063 0.448807 -0.21914 -0.169836 0.136486
manslaughter 0.033335 0.12131 -0.088852 -0.180055 0.166722 0.431014 -0.372597 0.347982 -0.353201 -0.007938 0.301316 -0.43613 -0.12676 -0.315814 0.418701 -0.107669 0.087737 0.298645 -0.293445 0.059806 -0.010781 0.179172 -0.526684 0.088828 0.168359 0.027639 0.068453 -0.184832 -0.325685 0.249805 -0.24994 0.27353 -0.048486 -0.139944 -0.10121 -0.406552 0.349263 -0.320055 0.187997 0.497855 -0.156678 -0.025375 0.31101 0.372352 -0.546995 0.023908 0.243019 0.122957 -0.251899 -0.153327 0.100557 -0.326686 0.116955 0.206312 0.375614 0.382355 -0.00497 0.283493 -0.286935 -0.092723 -0.202282 -0.367805 -0.057831 -0.01368 0.35954 0.135721 -0.058427 -0.200607 -0.197148 0.343753 -0.145578 -0.391279 0.326924 -0.499737 0.283426 0.473014 -0.170156 0.026095 -0.401032 0.281219 -0.220121 0.609741 0.200178 0.192643 -0.001378 0.056197 0.649559 0.14391 -0.340964 0.109832 -0.007341 -0.175639 0.162611 0.027232 -0.07213 0.055149 -0.165408 0.405583 0.034893 -0.666821 -0.169272 -0.081366 0.386028 -0.010939 1.05272 -0.42576 0.372138 -0.470998 0.361026 -0.028407 0.055099 0.150998 -0.552157 0.509174 0.012132 0.322936 -0.062754 0.162196 -0.871642 0.161657 0.146917 -0.385638 0.079568 -0.136124 -0.337431 -0.351593 0.296201 0.885587 0.539487 -0.52362 -0.747591 -0.05037 0.326344 0.110759 -0.061226 0.15182 0.15647 0.216084 0.108169 0.438578 -0.271772 -0.064902 -0.120484 0.360708 -0.0255 -0.170189 0.194652 0.642264 0.195994 0.010517 0.171398 0.481282 -0.446068 -0.093222 -0.191419 -0.381706 -0.285144 -0.191619 0.678281 0.111402 -0.569309 -0.447944 -0.176475 -0.472256 0.036679 -0.210366 0.158937 -0.388551 0.037085 0.151293 -0.577312 0.286621 0.415237 -0.082089 0.39352 0.11982 0.349656 -0.337742 -0.335546 -0.084759 0.225323 -0.078627 -0.0874 -0.02386 0.270224 -0.288207 -0.364842 0.117133 -0.045625 0.057736 0.288453 -0.200514 -0.052548 -0.094582 0.081449 0.705304 0.033481 -0.664741 0.120883 0.022795
music 0.064425 -0.094127 0.444608 0.061953 -0.158799 0.001095 0.10264 -0.005731 -0.128135 0.173659 -0.587077 -0.055842 0.162928 -0.365315 0.04581 0.110398 -0.160066 0.177607 0.116979 0.091628 0.294163 -0.200729 0.019163 -0.230181 -0.061064 -0.267219 0.161924 0.103168 -0.019818 -0.466658 -0.177896 -0.207539 0.525985 0.236683 0.218085 -0.306276 -0.021267 -0.15925 0.332118 -0.215253 -0.112865 -0.513537 0.19076 -0.17808 -0.141616 -0.159895 -0.218632 0.051281 0.213675 -0.094434 -0.06689 0.248632 0.256927 -0.208544 0.143222 0.25028 -0.110545 -0.337959 0.198573 -0.413828 0.360311 0.178756 -0.015111 -0.167339 0.092893 -0.129345 0.182269 -0.712738 0.436375 -0.463829 -0.257545 0.135175 -0.206879 -0.112968 -0.141718 0.277661 -0.142291 0.358507 -0.049851 -0.213734 -0.317292 -0.246706 -0.182448 -0.176646 -0.366454 -0.16773 0.223352 0.160993 -0.200375 0.239502 -0.108454 0.134646 -0.220925 0.029636 -0.057359 -0.212448 -0.033987 0.422945 0.069656 -0.132974 0.071932 0.138341 0.365108 0.358344 0.713621 -0.155872 0.260185 -0.223339 0.0458 -0.277043 -0.36327 -0.032749 -0.207891 -0.092439 0.229796 -0.048278 0.361624 -0.202384 -0.234382 -0.810537 -0.01179 -0.028484 0.298458 -0.179061 -0.206691 0.070889 0.126844 0.004796 0.021292 -0.38471 -0.46039 -0.206865 0.099081 0.361791 0.340187 -0.39085 -0.055958 0.297744 0.21884 0.140366 0.565323 -0.277257 -0.035858 0.407667 0.079701 -0.037222 0.435534 0.0942 0.324555 0.074173 0.469095 -0.1403 -0.24426 0.069724 0.266702 -0.014002 0.051923 -0.202257 -0.043127 -0.266469 -0.270882 0.175459 0.360619 -0.264283 -0.056523 0.080551 -0.029788 0.027609 0.234745 -0.21151 -0.105109 0.272136 -0.182444 0.167927 -0.276979 0.045345 0.19486 -0.120617 -0.212769 -0.537071 0.070182 -0.391002 0.005058 -0.227979 -0.443349 -0.092096 0.075689 0.492772 0.331047 -0.132996 0.007328 -0.049868 0.075752 0.159802 -0.273065 0.233581 0.100333 -0.088771 -0.09702 -0.426176
record 0.141188 -0.059726 0.100927 -0.120271 -0.107045 -0.105683 -0.052426 0.060731 0.094148 0.083783 0.141857 0.017168 0.019395 -0.164146 0.09817 0.114082 -0.05431 -0.070825 -0.077859 0.406416 0.033786 0.251076 0.186419 -0.013787 0.036747 -0.364417 0.268598 -0.095342 -0.119647 -0.16997 -0.408359 -0.439193 -0.296746 -0.093082 -0.108181 -0.178333 0.071014 0.089501 -0.007849 0.266155 -0.418969 -0.370672 -0.008284 -0.296346 -0.269762 -0.188282 -0.086877 0.12789 -0.008854 0.034715 0.023107 0.38513 -0.024145 -0.004264 -0.09277 -0.126997 -0.377142 -0.233697 -0.144664 -0.003797 -0.266595 -0.106047 -0.180322 -0.373561 -0.071066 -0.132382 -0.264909 -0.301567 -0.290281 0.09341 0.188235 -0.127114 -0.241357 0.057041 0.13648 0.594334 0.170659 -0.206049 -0.202303 -0.283668 -0.386297 0.044656 0.232518 -0.26938 -0.456352 -0.170162 0.027683 0.268928 -0.107803 0.187941 0.136105 -0.031792 -0.52724 0.021888 0.389962 -0.11236 -0.103222 -0.282784 -0.019252 -0.04039 0.064695 0.456743 -0.02477 0.177696 -0.237666 0.227019 0.068846 0.063421 0.090366 -0.530104 0.189863 0.013041 -0.172131 0.009593 0.17302 0.085215 -0.322019 0.558851 -0.232589 0.131959 -0.230485 0.127766 -0.226974 0.271314 0.225804 -0.207754 0.118493 0.065999 -0.228948 -0.399873 -0.095761 -0.203188 0.229063 0.051216 0.388417 -0.377404 0.069182 -0.026106 -0.092511 0.643397 0.747398 -0.300958 -0.236278 -0.037638 0.329719 0.081544 -0.04523 -0.294002 0.45571 0.317953 0.409024 -0.08288 0.035407 -0.376359 -0.246266 -0.095632 -0.141304 0.050042 -0.167925 0.065798 -0.246349 -0.186358 -0.130319 -0.108769 -0.133151 -0.110728 -0.293921 -0.208053 0.036817 -0.070297 -0.150735 -0.054892 -0.32886 0.260573 -0.243626 -0.170205 -0.214554 -0.231272 -0.466596 -0.047386 0.0081 -0.45986 0.237221 -0.130786 -0.07222 -0.081926 -0.080755 0.443028 -0.229835 0.17593 -0.146179 0.376179 0.097224 -0.188381 0.012982 0.146546 0.055436 -0.16451 0.396258 -0.047601
energy 0.07799 -0.104796 0.068758 -0.240987 0.146478 0.097206 -0.327295 0.04494 0.159553 -0.263096 -0.526094 0.179865 -0.050711 -0.048392 -0.126505 -0.020885 0.075478 0.56028 -0.154012 -0.007671 0.157531 -0.003461 -0.347035 -0.307257 0.073185 -0.299122 0.173034 -0.359731 -0.317631 0.238848 -0.048658 -0.115231 -0.075698 0.61633 -0.007585 -0.171644 0.134836 -0.10142 -0.010911 0.344858 0.255027 0.166597 0.002035 -0.269942 -0.01279 -0.431167 0.093084 -0.167333 0.156188 0.239827 -0.144737 0.756592 0.023853 -0.171309 0.218133 -0.251472 -0.14455 -0.313359 -0.143549 0.135527 -0.126311 0.17071 0.004902 -0.157669 -0.289418 -0.799328 -0.019771 -0.264172 0.154633 0.366927 0.01531 -0.179805 -0.339945 -0.111919 -0.256136 0.476617 0.29457 -0.182268 -0.066972 -0.107449 -0.316942 0.73017 0.384688 -0.084597 -0.248828 -0.285218 -0.081706 -0.086409 0.176611 0.251985 -0.166347 -0.185436 -0.282354 -0.167392 0.277692 0.123078 -0.170244 -0.143843 0.230117 0.141476 0.266869 0.165308 -0.179967 -0.075752 0.042233 -0.50439 -0.268591 0.436923 0.008202 -0.209409 0.243359 0.2594 -0.068887 -0.311203 -0.402748 -0.289624 -0.067716 -0.140076 0.220282 -0.129442 0.164694 -0.110912 0.157078 0.271368 -0.529767 0.003475 -0.187321 0.14979 0.341424 -0.171979 -0.600862 0.058705 0.12012 0.087398 0.18041 -0.16779 0.467994 -0.178518 0.017661 -0.026357 0.163396 -0.298548 -0.158502 -0.313839 -0.477115 0.042717 0.458922 -0.044507 0.00798 -0.084978 0.358361 0.058738 -0.086148 -0.235154 -0.007356 -0.218032 -0.342466 0.059471 -0.08141 0.127953 -0.532724 0.181775 0.363235 -0.180835 -0.015197 -0.143932 -0.090286 0.022814 -0.318763 -0.098673 -0.005467 0.192146 -0.123175 -0.321815 -0.360738 -0.160354 0.490221 0.094609 0.145825 -0.288761 0.46127 -0.318698 0.198376 -0.07446 -0.372674 -0.326535 -0.072734 -0.04044 0.046071 -0.014978 -0.300984 0.20326 -0.155136 0.081751 0.276191 0.131141 0.303968 -0.118807 0.01786 -0.10251
announcement -0.405407 0.002873 -0.229209 0.014855 0.37716 0.049033 0.014349 0.139551 -0.04938 0.235589 -0.352859 -0.20106 -0.004714 -0.059676 0.4544 -0.043508 -0.027043 0.53095 0.047455 -0.139619 -0.08528 0.258121 0.120348 -0.252027 0.010821 -0.309259 0.025327 0.114907 -0.188823 0.238241 -0.478015 0.156274 -0.171964 -0.037725 0.005662 -0.276317 -0.105598 0.027626 0.115036 0.129247 -0.197313 0.027856 0.272147 -0.156528 0.556328 -0.519166 0.222366 -0.606892 0.031503 -0.052624 0.151432 0.195009 0.385939 0.157955 -0.062352 0.078981 -0.242848 0.261474 -0.431253 0.247258 -0.242081 0.347606 -0.375547 -0.270693 0.202994 -0.326699 -0.296736 -0.338 -0.327665 -0.087536 0.226136 -0.215721 -0.017646 -0.042519 -0.193133 0.189592 -0.019984 0.003778 -0.052864 -0.193044 -0.39326 -0.006554 0.61825 -0.578529 -0.027669 0.161013 0.32206 -0.137526 -0.139008 0.248444 0.214495 0.350069 -0.03742 0.159814 -0.300916 0.447517 -0.029853 -0.108747 -0.226134 0.097447 0.097681 -0.161934 -0.062949 0.132655 0.563546 -0.34701 0.150014 0.129242 -0.232344 -0.026127 -0.381888 0.014662 -0.136017 -0.132067 -0.080103 -0.196822 -0.161232 0.255362 0.390714 -0.026402 -0.106164 -0.032383 0.089031 0.393659 -0.16253 -0.19778 -0.311828 0.121244 0.386426 -0.093369 -0.157853 -0.140006 0.225342 0.019372 -0.0272 -0.024194 0.219238 -0.139632 -0.072788 -0.020095 0.076507 -0.005675 -0.155185 0.214014 0.1135 -0.173632 0.102548 -0.160228 0.219705 0.325048 0.204068 0.092523 0.24385 0.059704 -0.245591 0.259946 0.167456 0.289945 0.160102 -0.255049 -0.183141 -0.033862 0.102738 -0.263239 0.271035 -0.211518 -0.288655 0.218118 -0.13 -0.021784 -0.210656 0.210376 -0.248472 0.084463 -0.04821 -0.079344 -0.114895 0.057869 0.270157 0.36721 -0.236571 0.109598 -0.149114 -0.419068 -0.313041 0.056952 -0.07092 0.10097 -0.164048 -0.162378 -0.358729 -0.196987 0.012312 -0.075943 -0.162153 0.220807 0.11942 -0.225679 0.230553 -0.006478
mile 0.130658 -0.038207 0.242109 -0.488889 0.142266 -0.117602 -0.012228 0.261693 0.516652 0.057919 -0.46662 -0.01117 0.208104 -0.108851 -0.164379 -0.403261 0.127136 0.524256 0.010203 0.058466 0.334287 0.058113 -0.119825 0.096667 -0.009415 -0.19555 -0.043273 -8.99E-4 -0.141387 -0.057704 -0.516396 0.150207 0.048167 -0.007353 -0.048226 -0.076798 -0.054849 -0.331961 -0.015709 -0.274095 -0.079273 0.00868 0.234869 0.052322 0.17549 -0.102115 0.363779 0.238452 0.092242 -0.250928 0.260242 0.057678 -0.081827 0.588512 0.393311 -0.184191 0.135712 -0.055255 -0.195255 0.367069 -0.233009 0.057634 0.241772 -0.4057 0.322847 -0.114766 0.280798 -0.201211 -0.346459 -0.028844 -0.125165 -0.157934 -0.024503 0.335007 0.147315 -0.029608 0.307598 -0.155763 0.014641 -0.061462 0.265785 0.350717 0.37001 0.283073 0.032332 -0.216615 0.300353 0.565378 0.169892 0.401622 -0.222695 0.053484 0.00455 0.38872 -0.141746 -0.397451 -0.060756 0.03633 0.326183 -0.017553 0.383284 -0.15417 0.319968 -0.06057 0.278076 0.091089 -0.233559 0.44577 0.162305 0.008736 0.051052 0.032479 -0.316504 -0.033412 0.25011 0.063113 0.007587 0.010675 0.237066 0.309739 0.411959 0.170243 -0.068868 0.186689 0.146562 0.149597 -0.071929 0.289827 -0.106646 -0.368035 -0.154379 0.092326 -0.072938 -0.106499 0.529007 -0.366301 -0.029218 0.065125 0.065975 0.544606 0.267301 0.087137 0.023428 -0.165035 0.101418 0.171519 -0.117512 0.134988 0.309032 -0.214002 0.214865 -0.021823 0.113588 -0.198286 0.03764 -0.088688 -0.0145 -0.142946 0.241397 0.230436 -0.016602 -0.115028 0.109113 -0.258165 -0.027021 -0.282101 -0.761006 -0.139672 -0.286478 0.458599 -0.31155 0.351489 0.089454 0.288737 -0.115899 0.152492 0.195285 -0.315218 -0.324044 -0.15936 -0.255123 -0.036189 0.188326 0.021061 0.024076 -0.015724 -0.20743 0.256773 0.163866 0.323161 -0.536094 0.466384 -0.381082 0.092413 0.104625 0.231579 -0.190593 0.078159 -0.020424 -0.252828
airport 0.33077 -0.075165 0.005615 -0.294016 0.045748 0.036128 -0.217557 0.383737 0.096255 -0.294454 -0.299053 -0.255886 0.210115 -0.256539 0.191452 0.181351 -0.085074 0.22735 0.035526 -0.457312 0.15438 0.297917 -0.072417 0.363781 -0.272667 -0.490973 -0.08089 0.01802 -0.61166 -0.068538 -0.069062 0.14906 -0.189974 0.349582 -0.059228 -0.103064 0.008095 -0.358785 -0.105017 -0.055489 0.233858 -0.361994 -0.028131 0.048248 -0.06243 0.194059 0.690271 0.207318 -0.140865 0.212176 0.239558 -0.057615 0.007729 -0.022753 0.197641 0.290358 0.078872 0.560661 -0.12572 0.581973 -0.119904 -0.414267 -0.569331 -0.437975 0.016651 -0.185642 -0.093354 -0.273175 0.078721 -0.011164 -0.182368 0.079975 0.051382 0.017136 -0.425636 -0.117381 0.531125 -0.041963 -0.184791 0.110761 -0.098201 0.126156 0.344396 0.079213 0.186146 0.005915 0.411601 0.160425 0.244012 -0.01892 -0.169831 0.074052 0.042291 -0.028229 -0.245423 0.099136 0.130244 0.171948 0.176632 0.68703 0.174626 -0.029476 0.220602 -0.098162 0.369354 -0.131273 0.242348 0.307083 0.341245 -0.107683 -0.240921 -0.29451 -0.139307 -0.380455 0.103724 0.188058 0.010699 -0.427509 -0.096993 0.161718 0.23563 0.050726 -0.153242 -0.27245 -0.265107 0.281301 -0.244314 0.569871 0.375317 -0.344919 -0.646963 -0.242033 -0.073993 -0.293114 -0.148279 -0.176253 -0.213554 0.032511 0.01764 0.059631 0.024674 0.163036 0.104088 0.080172 -0.029493 -0.078455 -0.48849 -0.214335 0.338679 0.052713 0.242144 0.004654 -0.17916 -0.198664 0.204407 -0.074564 -0.086043 0.009917 0.319217 0.5607 -0.046643 -0.130439 0.009612 0.321598 0.058299 -0.320152 -0.18478 0.213491 -0.309455 0.029431 -0.374646 0.115573 -0.586936 0.309642 -0.484364 -0.074786 0.270362 -0.491074 0.258037 -0.178512 -0.046332 0.061921 -0.385467 -0.176843 0.134014 0.144242 -0.18546 0.564393 0.208607 0.170901 0.059301 0.047422 -0.127052 -0.064018 0.224362 0.103632 0.549676 -0.392983 -0.036988 -0.311425
population 0.066831 0.13869 0.238641 -0.197659 0.031809 -0.131021 -0.565714 0.534418 0.216327 -0.150909 -0.23579 -0.055522 -0.024517 -0.453351 -0.276201 0.347893 -0.163026 0.220409 0.061637 -0.136469 0.225018 -0.316147 -0.120651 0.252902 0.14457 -0.083885 -0.191551 -0.520526 -0.026004 -0.081646 -0.212844 -0.146848 0.120569 0.583792 -0.206159 0.144052 0.260847 -0.124894 -0.219197 -0.008832 -0.006074 -0.020814 0.010586 0.163119 0.049071 -0.098872 -0.064804 -0.065219 0.172606 0.071603 0.189384 0.31219 0.311163 0.109142 -0.047178 0.034993 0.059785 0.262833 -0.12634 0.264822 0.124534 0.124128 -0.579361 -0.403884 0.048099 -0.422904 0.059096 -0.19821 -0.193284 -0.630927 -0.008498 -0.036372 -0.288295 -0.123473 0.124218 0.414522 0.280273 0.131891 0.100629 -0.335298 0.182315 0.122811 0.057316 0.162466 -0.091767 -0.296798 0.433214 0.158939 0.098521 -0.077865 -0.373563 -0.00489 0.110702 0.323309 0.421899 0.173698 0.265537 -0.409956 -0.009432 0.383763 0.519518 -0.074216 0.121463 0.060107 -0.061653 -0.117968 -0.232183 -0.039422 0.180038 -0.025805 -0.057877 0.183818 -0.132618 0.003151 0.346124 0.010235 0.00261 0.245551 0.029944 0.059575 0.282236 0.170545 -0.098212 -0.271092 -0.025952 -0.133034 0.340292 0.197306 0.317094 -0.465217 -0.554626 -0.059642 0.147709 -0.157771 -0.086592 0.065313 0.538058 -0.153957 -7.92E-4 0.452889 -0.173999 0.360354 0.333593 -0.121574 -0.158851 -0.279406 0.647822 -0.171626 -0.070248 -0.193644 0.387409 -0.166852 0.783497 0.006179 -0.083013 -0.128892 -0.579848 -0.185208 0.208854 0.117521 0.069788 -0.085914 -0.463504 -0.593867 0.046796 -0.19804 -0.160278 -0.281192 -0.057994 0.113185 -0.086842 0.167401 -0.347918 0.146208 -0.11336 0.181481 -0.08035 -0.152948 -0.289927 0.285664 -0.048965 0.111946 0.501931 -0.24422 -0.147644 0.232118 -0.23759 0.111106 0.21332 0.356547 -0.025273 0.16734 -0.455311 0.585897 0.201052 0.006224 -0.101815 0.085281 -0.003466 -0.384334
planning -0.392684 0.383203 -0.232248 -0.080343 0.299791 0.116251 -0.058186 0.288913 0.195587 0.033027 -0.315337 -0.331567 -0.095357 -0.116578 0.024555 0.009905 0.11352 0.868242 -0.01863 0.015828 -0.166041 0.300482 -0.044158 -0.105417 -0.074361 -0.02959 0.118948 -0.057073 0.088023 -0.185728 -0.113272 -0.023205 0.081207 0.140324 -0.118639 -0.303027 0.120788 -0.039916 -0.094996 0.174412 0.030099 -0.074021 0.212226 -0.155881 0.288082 0.10533 -0.006187 0.143665 -0.198352 -0.316684 0.088946 0.328475 0.084992 0.069294 0.103334 0.232566 -0.182491 0.068103 -0.119559 0.288236 -0.26348 -0.189853 -0.23287 -0.243004 -0.153319 -0.069698 -0.068529 0.18072 -0.014064 -0.103829 0.20486 0.038909 -0.03952 6.28E-4 -0.505994 0.277224 0.014383 -0.231823 -0.170027 -0.404458 -0.180284 0.015646 0.084937 -0.130566 0.087681 -0.038594 0.12161 0.013999 -0.117564 0.059771 0.03865 -0.152721 -0.269014 0.263467 0.128633 0.014292 -0.17867 0.10839 0.180271 0.241443 0.180827 0.512716 -0.024903 -0.011938 0.120812 -0.251451 0.317304 0.168908 0.291716 -0.14381 0.072788 2.55E-4 0.039131 -0.071923 -0.021378 0.005411 -0.003098 0.028623 -0.014004 0.164173 -0.056323 -0.21179 0.205257 -0.14787 -0.357297 -0.21102 -0.018894 0.679761 0.114402 -0.162939 -0.419701 -0.221389 -0.087536 -0.161873 -0.081493 -0.015036 0.058183 -0.265922 0.107682 -0.07148 0.114683 0.02963 -0.241906 -0.020418 -0.187998 0.018338 0.459729 0.101619 0.483408 0.083959 -0.028873 -0.011382 0.121918 0.014793 -0.202414 0.170834 -0.144321 -0.098043 0.290266 -0.076584 -0.262067 -0.102927 0.228419 0.039282 0.19148 -0.198068 0.065643 0.082282 -0.034209 -0.010282 0.009454 0.05277 -0.343918 0.098971 -0.028715 0.002421 0.37172 0.033835 -0.112082 0.05487 0.160815 0.073015 0.091549 -0.03509 -0.30291 -0.183483 -0.306688 0.196142 0.267131 -0.35372 -0.026119 -0.075543 -0.329809 0.265044 -0.160893 -0.149245 -0.059634 -0.018533 0.107712 0.167994
canyon -0.019803 0.06444 0.036863 -0.277408 0.052569 0.058232 0.084872 -0.154603 0.25743 0.201932 -0.197167 -0.182676 0.310443 -0.089656 -0.136557 -0.193972 -0.025505 0.063387 -0.063239 0.009789 0.223742 0.103423 -0.351461 0.260423 -0.016915 -0.097876 0.067145 -0.03304 -0.220387 -0.029132 -0.069258 0.063074 -9.13E-4 -0.077871 -0.105904 0.011923 -0.040548 -0.120042 0.027187 -0.058208 0.111593 -0.217089 0.004562 0.007986 -0.130121 -0.191091 -0.056701 0.222848 0.147394 0.132328 0.044042 0.212109 -0.272547 0.047486 0.06733 -0.111569 -0.167356 -0.026802 -0.278801 0.219189 -0.152112 0.098289 -0.18966 -0.330872 0.182473 0.170628 0.438888 0.045765 -0.09576 -0.182347 0.030935 -0.116181 -0.150726 -0.038645 0.065607 -0.13651 0.226464 -0.147909 -0.198919 -0.189156 0.259138 0.069618 0.025768 0.125325 -0.006084 -0.169595 0.068895 0.372495 0.099919 -0.041412 -0.290118 -0.224755 -0.059274 -0.039771 0.095178 -0.014251 -9.67E-4 0.151755 0.015816 -0.222886 0.255655 0.088442 0.098501 -0.074054 0.131612 -0.258607 -0.112345 -0.140552 -0.095672 0.029058 -0.14036 -0.011739 -0.265543 -0.085628 0.119414 -0.003668 0.061579 -0.133609 0.099935 0.250564 0.279938 0.07053 0.049041 0.20841 -0.007918 0.178146 -0.302962 0.344434 0.139294 -0.261887 -0.178635 -0.084929 -0.081486 -0.174686 0.176723 -0.256033 -0.115339 -0.213748 0.10448 0.339707 0.266691 -0.027143 0.098476 0.088559 -0.094724 0.072405 -0.224396 0.143594 0.14492 -0.18902 0.090687 0.122156 -0.122559 -0.009132 -0.031094 -0.085619 -0.09837 -0.050633 0.129316 0.137028 0.324243 0.031276 0.109353 -0.148348 -0.1479 -0.090777 -0.239906 -0.137426 -0.300502 0.221885 -0.306041 0.324261 -0.092884 0.296929 -0.278957 0.04757 0.056901 -0.393387 -0.333332 -0.23691 0.06028 -0.01112 0.149249 0.085892 -0.047249 -0.094989 -0.279562 0.455239 0.238136 0.351579 -0.537325 0.189815 -0.245937 0.204155 0.183979 0.20108 0.172134 -0.209242 -0.139344 -0.395493
delay -0.155631 0.168422 -0.240038 -0.184614 0.030641 -0.074466 -0.464629 -0.076818 -0.022174 0.304658 -0.179629 0.022572 -0.306197 -0.391217 0.142772 -0.090437 -0.129159 0.376807 -0.191781 -0.020916 -0.241462 0.172461 -0.154927 -0.231279 0.203186 -0.292048 0.050847 0.012771 -0.105796 -0.019506 0.050772 -0.263821 -0.186394 -0.036835 0.029278 -0.356465 0.085213 -0.065613 -0.160465 0.195411 0.264766 0.031869 0.488702 0.037317 0.104116 -0.387807 0.275381 -0.235579 -0.102467 -0.214662 0.41183 0.165197 -0.108423 0.339587 0.235859 -0.077108 -0.209588 0.339373 -0.40964 0.453161 0.168106 0.008527 -0.479013 -0.099215 -0.024039 -0.25559 -0.266272 -0.165307 -0.247782 -0.133844 0.362295 -0.218256 -1.77E-4 -0.294652 -0.239714 0.037112 -0.002314 -0.100628 0.153207 -0.385432 -0.186108 0.313907 0.093845 -0.497375 0.059508 -0.260288 0.126621 -0.075707 0.052241 -0.125003 0.159272 -0.073636 -0.078494 0.042695 0.27496 0.346575 -0.285232 -0.09137 -0.146643 0.064626 0.295767 0.122549 0.137997 -0.092214 0.568401 -0.361537 0.188192 0.264786 0.065913 -0.202643 -0.183664 -0.073328 0.085687 -0.059402 0.174607 -0.016072 0.042629 0.128682 0.154699 0.303371 0.126341 -0.164035 -0.120281 0.13528 -0.239249 0.030333 -0.152751 0.170753 0.066538 -0.505665 0.154986 -0.440586 0.187111 -0.129401 -0.051427 -0.065706 -0.383707 -0.184407 0.20001 -0.14982 0.119595 -0.009152 -0.226625 0.007606 -0.384577 -0.187951 0.460994 0.217392 0.270371 -0.10513 -0.01326 -0.282536 0.069828 -0.180707 -0.387502 0.048711 0.136741 -0.31224 0.017914 0.132059 -0.115307 -0.141305 0.146021 0.161563 -0.041373 0.176054 -0.033675 0.083921 -0.030294 0.113939 -0.231487 0.3492 -0.174513 -0.018585 -0.20542 0.037239 -0.080457 -0.064098 0.108458 -0.051984 -0.012939 0.279976 -0.02277 -0.254576 0.122859 -0.249354 0.001971 -0.226289 -0.007006 -0.292496 0.286587 -0.067349 -0.126825 -0.314536 0.134098 0.197856 0.160266 -0.177521 0.309087 -0.341757
size -0.200585 0.441687 0.217052 -0.260753 0.057775 0.005093 -0.135026 0.167033 0.031314 0.142728 0.031181 -0.175854 0.137958 -0.084328 -0.168746 0.089142 -0.370727 0.127914 0.340752 -0.024298 0.21926 -0.207661 -0.145831 0.096217 -0.097493 -0.38761 -0.325217 0.18224 0.03722 0.014487 -0.208583 0.014421 0.107042 0.221686 0.085641 0.001716 0.135656 -0.008073 -0.489048 -0.223816 0.012462 0.107539 -0.193223 -0.002328 0.332574 0.055113 0.102652 0.127365 0.067928 4.33E-4 0.025513 0.484477 -0.08131 0.235059 -0.125018 -0.11624 -0.369923 0.436215 0.087409 0.137658 -0.091265 0.079327 -0.361316 -0.161505 -0.092323 -0.215242 -0.450313 -0.267072 -0.183378 -0.01792 -0.097797 -0.297407 0.033008 0.081232 -0.288949 -0.119273 0.292949 -0.158356 -0.21258 0.003052 0.054424 0.292756 0.275795 -0.087591 -0.133202 -0.184167 -0.1857 0.384071 0.15656 0.263248 -0.177564 -0.600415 -0.289561 0.274164 0.172455 0.251791 -0.382378 0.176671 -0.078907 0.008647 0.109406 0.115231 0.01948 -0.091129 0.167531 -0.063726 0.018917 -0.047474 0.191857 0.183242 0.038539 0.200177 0.053767 0.09662 0.302516 -0.30942 0.045954 -0.100806 0.00378 0.03198 0.096299 -0.200117 -0.398632 0.128908 0.014321 -0.159137 -0.185271 0.08709 0.040626 -0.021617 -0.281077 0.068206 -0.208927 -0.051232 0.157209 0.093586 0.058168 0.067784 0.198829 0.071252 0.154115 0.44692 0.068858 0.152182 -0.251192 -0.047777 0.37648 -0.140468 0.075177 0.191766 0.50188 0.023402 0.141961 -0.040532 0.098167 0.09247 -0.178297 -0.492523 -0.101868 -0.049653 -0.035503 -0.188875 -0.007977 -0.079088 0.090999 -0.359996 -0.021484 -0.558693 -0.174813 0.29588 -0.177724 0.378689 0.071448 0.221775 -0.161613 -0.171659 -0.100729 -0.185801 -0.215466 0.42977 0.134937 -0.117865 0.15489 -0.402461 -0.203063 -0.038506 -0.002285 0.120991 0.406309 0.250817 -0.159766 0.215318 -0.342034 0.515616 0.047505 0.321176 0.171355 -0.288516 -0.015047 -0.242765
peace -0.469083 -0.279809 0.031061 -0.347462 0.195076 -0.290296 -0.763731 5.4E-5 -0.047956 -0.153423 -0.824648 0.00122 0.154359 -0.333262 -0.138493 0.222722 0.248125 0.563599 0.082084 -0.799301 0.176493 0.393442 -0.370849 0.207489 -0.085251 -0.039373 0.291322 -0.030257 -0.259993 -0.199654 -0.18465 -0.369556 -0.64067 0.289914 0.520281 -0.42581 0.49588 -0.400501 0.119542 0.068291 -0.017297 -0.087803 -0.020691 0.06637 -0.213744 -0.212484 -0.09064 -0.374139 0.441673 -0.187965 -0.162567 -0.318194 0.074694 0.400056 0.213542 0.206644 0.079458 0.193115 0.148843 -0.079711 0.163327 0.278248 -0.361473 -0.424391 0.247056 0.206328 -0.549482 0.104892 0.109528 0.052837 0.301005 -0.025744 0.064884 0.362521 -0.245461 0.218829 0.140356 -0.012136 -0.231252 -0.075485 -0.024651 -0.131904 -0.049183 0.153701 0.430934 -0.308771 -0.025699 0.197538 -0.3512 0.102479 -0.109277 -0.516795 0.19554 -0.326904 0.280403 -0.007538 0.294757 -0.247618 0.068258 0.389853 0.184413 -0.010903 -0.0029 0.204716 0.56168 -0.266024 0.186969 -0.065485 0.295656 0.539568 0.285784 -0.013693 -0.370745 0.240773 -0.0757 -0.351407 -0.23935 0.295224 0.006451 -0.736994 0.240263 -0.211423 0.35479 0.0807 -0.226178 0.526858 0.401114 0.477152 0.458443 0.006738 -0.127597 -0.255276 0.211632 0.483454 -0.189957 -0.104536 0.410658 -0.060139 -0.252911 0.687883 0.394921 -0.47894 -0.328566 -0.14306 -0.100508 -0.171059 -0.041583 -0.006396 0.154971 0.40177 0.066792 0.514082 -0.389239 -0.271993 -0.082538 0.207923 0.107766 0.283196 0.237945 -0.195633 -0.128258 -0.376934 0.056907 -0.363178 0.00336 0.100626 -0.483412 0.109549 -0.205002 -0.218168 0.085662 0.655953 -0.017307 -0.045838 -0.188607 0.048905 -0.329093 -0.081743 -0.275168 0.122465 -0.353644 -0.009909 -0.278391 0.062343 -0.215702 0.261458 0.112007 0.292646 0.090385 -0.029603 0.117094 -0.100435 -0.339192 0.156731 0.325965 0.283359 0.08939 -0.046848 0.095945 -0.951274
science 0.073243 0.154684 -0.166893 -0.057267 0.29145 -0.186022 -0.360845 0.431795 0.142187 -0.54645 -0.07205 -0.306869 0.04142 0.096762 0.111152 -0.051713 0.040741 -0.088476 -0.030182 0.212038 -0.176396 0.075554 -0.448155 -0.070675 0.269134 -0.1667 0.213507 -0.13378 0.182988 -0.080895 -0.134606 -0.025895 0.22648 -0.180662 0.396427 -0.285483 0.226647 -0.117521 0.212649 0.391011 0.131968 0.017402 0.136394 0.036055 -0.081668 -0.531195 0.217178 -0.070577 0.119189 0.152392 0.031557 0.141153 -0.14091 -0.03374 -0.049582 0.11029 0.185094 -0.052289 -0.270585 0.248906 0.153786 0.331123 -0.146607 -0.512352 -0.269594 0.125102 0.147012 -0.057499 0.313156 -0.145295 0.259026 -0.076011 -0.373644 -0.018327 -0.239663 -0.392018 0.304668 0.167028 -0.188307 0.001362 -0.112972 0.192173 -4.3E-5 0.240461 -0.208963 0.051779 0.241099 -0.002824 0.122999 0.149222 0.051569 -0.063887 -0.290844 -0.044169 0.496143 0.150407 0.007165 0.452564 -0.076386 0.060771 -0.097364 0.284494 -0.419766 0.144279 0.388496 -0.099204 -0.424062 0.075258 0.094657 -0.130573 0.073464 0.541324 -0.390666 -0.124958 0.109289 -0.347681 0.025373 -0.22624 -0.145738 -0.410909 -0.04194 0.180409 -0.109363 -0.038792 -0.150114 -7.42E-4 -0.132898 0.09368 0.255349 -0.342048 0.136169 0.073284 -0.478636 -0.05398 9.4E-4 -0.155576 0.279309 -0.019508 0.077874 0.468089 0.255098 -0.34527 0.14228 0.194479 -0.329707 -0.043707 1.005642 0.097945 0.080214 0.506273 0.242508 0.206255 -0.031483 0.005395 -0.01509 0.02276 -0.152341 -0.548588 -0.206938 -0.148698 -0.333226 0.207391 0.090089 -0.15743 0.230215 -0.079405 -0.048952 -0.071782 0.099545 0.09231 0.055635 0.380668 -0.42518 -0.004903 -0.424746 -0.104 -0.085053 0.108916 0.051338 -0.335655 0.304965 0.03408 0.088877 0.147467 0.097062 0.122483 -0.031732 0.136727 0.199039 -0.045765 -0.290258 -0.030088 -0.073918 0.04602 0.070413 -0.14543 0.226532 -0.07412 0.105022 -0.278234
dawn 0.235047 -0.346733 0.018519 -0.397166 0.424281 0.070988 -0.074181 0.374829 0.027418 0.252004 -0.326278 0.065269 0.021339 -0.259922 -0.157982 -0.084371 -0.191213 0.194315 0.180921 -0.356403 -0.007254 0.166984 0.029082 0.347129 -0.138674 -0.416803 -3.96E-4 0.064467 -0.003005 -0.041358 -0.205115 0.049367 0.059074 0.053017 -0.104253 -0.178816 -0.188194 -0.223992 0.045242 0.208113 -0.014199 -0.171676 0.167943 0.141048 0.275754 -0.432269 0.336506 0.062951 0.080458 -0.098301 -0.021714 0.252732 0.099444 0.13372 0.163448 -0.047618 -0.13891 0.141809 -0.111505 0.379867 -0.366165 -0.196601 -0.125421 -0.268992 0.208605 0.087457 0.070282 0.058362 -0.226125 -0.37348 0.118096 0.232248 0.125861 0.192779 0.058556 -0.051022 0.267679 0.00359 0.121471 -0.105375 -0.086562 0.124188 0.04956 0.127828 0.381271 -0.016897 -0.005014 0.42159 0.030138 -0.026252 -0.118016 0.014071 -0.095762 -0.022586 -0.080498 -0.155706 -0.040666 0.143611 -0.057241 0.147604 0.259822 -0.250068 -0.007862 0.197549 0.32289 -0.332471 0.169296 0.069775 0.209994 0.156809 -0.280204 0.191722 -0.265282 -0.132714 0.110202 0.030921 -0.083962 0.106197 0.122308 0.013124 0.02203 0.14408 0.202581 0.297275 0.239918 0.186813 -0.203943 0.358294 0.261219 -0.11011 -0.107166 -0.134018 -0.129587 0.007638 -0.145557 -0.209013 -0.120764 -0.403587 0.069341 -0.0031 0.155204 -0.293505 0.176671 -0.04122 -0.091792 0.019217 -0.224101 0.143121 0.345294 -4.65E-4 -0.249345 -0.07426 -0.035143 -0.018672 0.293697 -0.094949 0.198722 0.235631 0.45746 0.250418 0.386011 -0.160576 0.159066 -0.39159 -0.074464 -0.121243 -0.130593 -0.117763 -0.336287 -0.186323 -0.286104 0.398385 -0.274062 0.326618 -0.124167 -0.064238 -0.18678 -0.223944 -0.390593 -0.11018 0.165575 0.100824 0.272045 0.118247 -0.337991 -0.195385 -0.421521 0.45231 0.508327 0.275058 -0.199425 0.226451 -0.11695 0.325019 0.030456 0.255117 0.059666 -0.080276 -0.147924 -0.282922
brother 0.122563 -0.06854 0.059194 -0.088521 0.226844 0.284129 -0.36603 0.534474 0.307756 -0.077757 -0.058585 -0.358542 0.554859 -0.436331 0.209858 0.253734 0.203492 0.247607 -0.249961 0.459322 -0.118778 0.374671 -0.23652 -0.050322 -0.18755 -0.180981 0.196195 0.237299 -3.49E-4 0.076831 0.177096 -0.101142 0.092674 0.054746 0.079071 0.067067 -0.057543 -0.028059 0.104969 0.012236 -0.085675 0.05799 -0.086145 0.211417 0.17386 -0.357958 -0.009086 -0.198082 0.001737 0.388542 0.252282 0.031513 0.045423 0.219474 -0.072119 0.339979 -0.34502 0.024177 0.046867 0.001187 -0.322892 -0.197084 -0.045152 -0.270425 0.279172 0.077651 0.23285 -0.282527 -0.37133 -0.160496 -0.323334 0.278129 0.18713 -0.125405 0.141266 0.09934 0.156922 0.091221 0.027589 -0.008609 -0.404426 0.004062 -0.134448 -0.098777 0.275605 0.031546 0.285335 -0.157542 -0.100976 0.068077 0.110916 -0.237 -0.043823 -0.155588 -0.036192 -0.174916 -0.206243 0.286389 0.046322 -0.468235 0.171469 0.135889 0.37972 -0.41973 0.898324 -0.419492 0.029192 0.211137 -0.05508 0.43192 0.127497 -0.010581 0.178259 0.160479 -0.15558 0.377684 0.132524 0.117489 -0.329901 -0.207946 -0.005555 0.104471 -0.183388 0.054514 0.287966 0.415086 0.189605 -0.026835 0.347527 -0.371112 -0.372183 -0.482612 -0.363272 -0.115931 -0.070307 -0.058779 0.369185 -0.008688 -0.191137 0.079 0.320603 -0.166781 -0.094761 0.30167 0.058188 -0.17165 -0.185551 -0.035224 0.095276 0.034434 0.161949 0.132105 0.116012 0.222056 -0.290663 -0.15324 -0.267786 0.341373 0.324257 0.254546 0.098328 -0.217865 -0.022988 -0.339644 -0.10023 -0.037792 -0.214724 -0.341571 0.003137 0.0186 -0.527529 0.419994 0.089214 -0.230237 -0.030387 -0.071159 0.126385 -0.632037 0.234315 -0.075228 0.056273 0.083245 0.14635 -0.005832 0.032617 -0.192585 -0.302138 -0.154611 -0.025957 -0.187077 0.212409 -0.131065 -0.065189 0.052293 0.281894 -0.091135 -0.074699 -0.142415 0.227983 0.237645
wine 0.571287 0.115498 0.354095 -0.018868 -0.339576 0.102853 -0.08505 0.11678 0.256807 -0.014495 -0.295154 -0.51665 -0.069028 -0.528851 -0.739464 0.242099 -0.164385 0.438058 0.405989 -0.48522 0.618254 0.028389 -0.166052 -0.234858 0.201313 -0.303495 0.097871 -0.037493 -0.068441 -0.008011 -0.062158 0.023393 -0.15689 0.212268 -0.24152 -0.054076 -0.085737 -0.120602 -0.130935 -0.080588 0.172626 -0.182175 0.381471 -0.404494 -0.064151 0.118778 -0.129337 0.417393 0.267108 0.120604 0.065853 0.147556 0.02927 0.03898 0.126485 -0.027047 -0.067661 -0.055204 0.141321 -0.132013 0.224543 0.135588 9.24E-4 -0.320693 -0.259299 -0.344651 -0.075105 -0.245237 -0.162208 -0.414271 -0.033772 0.26827 -0.158196 -0.162085 -0.229832 0.147225 0.372069 0.376946 -0.115125 -0.302787 -0.382362 0.128343 0.021926 0.121943 -0.013191 0.277791 -0.189873 0.123989 0.141153 0.123924 0.095303 -0.149232 0.131719 -0.01159 -0.183464 -0.029736 0.047529 0.597641 0.028414 -0.079966 0.17495 -0.094014 -0.345768 -0.2802 0.247141 0.255584 0.145422 0.089049 -0.23043 0.240994 -0.198164 -0.175046 -0.507583 0.033684 0.088714 0.317316 -0.269302 -0.095336 -0.142203 -0.464329 -0.07259 -0.077264 -0.107961 0.012298 -0.102258 -0.142659 -0.317735 0.297041 0.101395 -0.268599 -0.483552 0.279323 0.070702 -0.240835 0.239674 -0.595059 -0.129087 0.265477 0.113493 0.247499 0.166492 -0.155673 -0.259205 0.278551 -0.104465 0.053084 0.014911 0.002416 -0.158777 -0.274729 -0.146151 -0.089106 -0.170429 -0.089262 0.214978 0.054694 0.141778 0.075757 0.060016 -0.085505 -0.460227 -0.00805 0.156434 -0.379107 -0.154799 0.104115 0.140204 -0.428848 -0.358505 0.280274 -0.245745 0.134134 -0.433462 -0.269505 -0.166357 0.02581 0.072845 0.069976 0.253262 -0.224118 -0.004932 -0.595938 0.164899 -0.175033 0.037089 -0.103456 -0.148542 0.03573 0.32198 -9.58E-4 -0.11923 -0.145357 -0.58384 0.218698 -0.050051 0.224744 0.138056 -0.796987 -0.197956 -0.382542
object 0.026125 0.080891 -0.293934 0.019061 -0.042059 -0.13577 -0.316046 0.13787 0.054185 0.074598 0.00715 -0.015652 0.188098 -0.018533 -0.16745 -0.298303 0.01087 0.069902 0.123954 0.111573 -0.018947 0.037519 -0.250445 -0.001162 -0.046801 -0.092349 -0.06188 0.136323 -0.019699 -0.02054 0.021516 0.205253 0.073867 0.090991 0.005568 0.193477 0.124534 -0.274848 0.18925 -0.050138 0.071126 -0.195944 0.040607 -0.121912 -0.188334 -0.172684 0.282777 -0.269975 0.389111 -0.068856 0.10995 0.120835 -0.117281 0.026252 -0.048601 -0.029689 -0.065956 0.213467 0.090927 0.228017 -0.113812 0.232226 -0.302365 -0.458591 0.024145 -0.166136 0.17961 -0.134643 -0.060569 0.014312 0.100373 -0.105174 -0.113572 0.145483 8.49E-4 -0.067104 0.14573 -0.109873 -0.059277 -0.075951 -0.351801 0.173601 0.060817 -0.232139 -0.220447 -0.103401 0.058262 0.166999 -0.254965 -0.191187 -0.086313 -0.20097 -0.085336 -0.200172 0.105552 -0.097854 -0.092239 0.235415 0.250151 0.016364 -0.01558 0.085324 0.239689 0.08631 0.379213 -0.527298 -0.204123 0.180608 -0.217082 0.150481 0.017317 0.288621 0.053003 0.254875 0.088577 -0.022273 -0.098616 -0.170105 0.111376 0.089672 0.107312 0.203028 0.076801 0.187595 0.005421 0.141871 0.008245 0.29494 0.335724 -0.183041 0.203006 -0.187594 -0.359146 -0.119394 0.343081 -0.056091 0.137135 -0.136045 -0.006114 0.057816 0.297258 0.114858 -0.149973 0.143925 -0.206939 -0.047149 0.267706 0.285562 0.218044 0.303851 0.093024 0.201833 -0.108862 -0.272725 0.167466 0.128225 0.002636 -0.159081 0.109092 0.083423 0.122461 0.078362 0.384882 -0.110668 -0.074915 -0.220141 -0.164376 0.079458 -0.131869 0.434836 -0.243637 0.38656 0.299621 0.134073 -0.074975 0.049478 0.077229 0.185577 -0.075935 -0.043279 0.348668 -0.307315 0.104361 -0.222428 -0.266667 -0.014248 0.079637 0.233319 0.205379 0.135701 -0.295154 -0.003773 -0.072351 0.559716 0.305288 0.086548 0.306322 -0.221315 0.048207 -0.440016
attitude -0.19331 -0.12167 -0.21435 -0.112318 0.09903 -0.24364 -0.12105 0.07378 0.072177 -0.120886 -0.223076 -0.013276 0.163859 -0.483344 -0.149079 0.266457 -0.169778 0.186331 -0.014784 -0.059638 0.194544 -0.137435 -0.04744 0.023654 -0.017027 -0.102534 0.10338 -0.12712 0.012483 0.267189 0.052005 0.039116 -0.341605 0.133961 -0.139365 0.031102 0.463521 0.003693 -0.019567 -0.156067 -0.075467 -0.254049 0.084254 -0.205355 0.063046 0.016033 0.309147 -0.200492 0.144205 0.108487 0.023427 0.115981 -0.085849 0.007592 -0.353224 0.020867 -0.15522 0.284416 0.053109 0.306583 -0.017928 -0.10034 0.063001 -0.320142 0.063104 0.006251 -0.345203 -0.486953 0.307597 -0.047009 -0.054487 0.045478 -0.074395 0.204612 -0.200026 -0.071624 0.424195 0.113315 0.049648 0.025481 -0.314972 0.017964 0.220626 0.034012 -0.178319 -0.02335 -0.157767 0.190763 -0.158411 0.036853 0.029519 -0.326264 0.004974 -0.077182 -0.114947 0.008937 -0.176259 -0.010368 -0.032612 0.137562 -0.081877 0.323124 0.093543 -0.034425 0.626188 -0.368488 0.160852 0.382955 0.199829 0.07351 -0.254625 0.188537 -0.19895 0.233186 -0.031181 0.276865 -0.179246 0.091897 0.175545 0.010554 0.276991 0.023843 0.054561 -0.23425 0.047026 -0.177706 0.096427 -0.076645 0.045619 -0.060342 -0.017324 -0.144996 -0.142117 -0.354362 0.275328 0.035445 0.609933 -0.149598 0.045955 0.286368 0.405484 -0.125333 -0.313977 0.294341 -0.165796 0.241529 0.588717 0.099104 0.02747 0.218801 0.07131 0.284767 0.252347 0.021583 -0.147813 0.567865 -0.329621 -0.25224 0.009322 0.040094 -0.163969 -0.075483 0.300953 -0.397977 0.143809 0.084956 -0.013102 0.157771 -0.179241 -0.292685 -0.18649 0.401171 -0.023951 -0.050099 -0.117242 -0.277453 -0.004085 -0.012459 -0.060942 -0.208805 0.139955 0.072976 0.239612 -0.110509 -0.335708 0.207099 0.03775 0.116234 0.217781 -0.213416 0.290847 -0.271568 0.341576 0.363813 0.129296 0.278788 -0.174687 0.163634 -0.039005 -0.289857
treatment -0.215724 0.128979 0.072537 0.042365 0.070705 0.36821 -0.22197 0.084206 -0.135419 0.154983 0.072773 0.089137 -0.185038 -0.436678 0.197833 0.266686 0.342137 0.497337 -0.452416 -0.417986 -0.168788 -0.036763 -0.658185 0.095693 -0.04364 0.078815 -0.211699 -0.434188 -0.169736 -0.159549 0.222757 -0.009601 0.011147 0.228436 -0.152467 -0.037887 0.190474 -0.272086 -0.100204 0.002488 0.146334 -0.121581 0.254672 0.060319 0.186744 -0.296028 0.177444 -0.016188 0.155963 -0.208237 0.068074 -0.09705 0.010152 0.064702 -0.040097 0.364116 -0.519363 0.034782 -0.389859 0.415004 -0.267347 -0.037485 0.175707 -0.430806 0.130189 -0.368849 -0.095091 -0.083122 -0.051676 -0.331978 -0.027625 -0.130874 0.104686 0.107734 -0.075491 0.208034 0.329166 -0.172289 -0.313482 -0.086598 -0.193667 0.404061 0.066928 0.148011 -0.526886 -0.303102 0.381568 -0.085496 -0.040561 -0.187575 0.190831 0.139084 -0.085063 0.180833 0.445987 0.070202 -0.035339 -0.0149 -0.110962 -0.299352 0.283546 0.117968 -0.077401 0.395195 0.288932 0.044441 0.116662 -0.211227 0.025566 -0.179828 -0.585584 0.237771 0.053366 0.082413 0.064961 0.314345 0.088392 -0.087917 0.282613 0.288326 -0.067975 -0.075883 0.008233 0.219994 0.215616 0.015679 0.117334 0.426353 -0.002183 -0.350877 -0.213985 0.247685 0.176607 -0.258463 -0.171124 0.050142 0.073014 0.001068 -0.031299 0.17168 0.003336 0.033513 -0.2464 0.117243 0.286179 0.185226 0.328986 0.158929 0.103521 -0.195219 -0.002447 0.290976 -0.26438 -0.069345 0.193917 -0.00891 -0.279588 -0.391852 -0.117532 0.481904 -0.594568 -0.014622 0.005138 -0.154128 0.210115 0.226572 -0.167523 0.188843 0.096794 -0.036384 -0.136208 0.383505 -0.166331 -0.478976 0.092272 -0.104361 -0.379365 -0.114726 0.062904 -0.131149 0.124408 0.188584 0.042232 -0.086245 0.055547 0.146418 -0.169496 -0.160218 0.06415 -0.018028 0.123013 -0.405832 -0.291995 0.187022 0.300329 0.059092 0.535732 -0.20382 0.017039 -0.21359
flight 0.155864 -0.092623 -0.228841 -0.500275 -0.145257 -0.145713 -0.271113 0.41762 -0.123171 -0.353218 0.182758 -0.258721 0.128186 -0.124487 0.350592 0.165258 -0.068595 0.217942 -0.186912 -0.107154 -0.041196 -0.023262 -0.20134 0.285027 -0.314303 -0.414175 0.256951 -0.126885 -0.234204 0.123467 0.161967 0.015151 0.175779 0.0235 0.016131 -0.147629 0.332628 -0.214099 0.031093 -0.118208 -0.06645 0.019347 0.35526 0.110019 -0.031675 0.17606 1.015736 0.098885 0.185524 0.058018 0.495888 -0.127705 -0.125368 0.030678 0.011597 0.316807 0.065901 0.278121 -0.262765 0.538483 -0.012913 -0.424749 -0.218822 -0.488247 -0.206546 -0.156135 -0.091016 -0.125638 0.026018 -0.083174 0.236424 -0.001814 0.046161 -0.177229 -0.39132 -0.028069 0.241616 -0.171692 0.011135 0.116773 -0.264599 0.107308 0.122373 -0.192334 0.243595 0.214618 0.275315 -0.028403 0.277114 -0.088579 0.092164 -0.083014 -0.005169 0.178462 -0.169573 -0.034454 -0.080696 0.25168 0.09083 0.641963 -0.03025 0.168393 0.531317 0.018134 0.41342 -0.010676 0.192908 0.346083 0.311247 -0.243818 -0.257249 -0.252013 -0.145957 -0.258904 0.063469 -0.279563 0.063659 -0.252165 -0.097691 0.255876 0.191898 0.041811 -0.096412 -0.232309 0.004403 0.064191 -0.319475 0.531214 0.768596 -0.493113 -0.017826 -0.129943 0.061198 -0.591534 -0.075698 -0.188011 -0.156367 0.031937 0.376187 0.083169 0.535956 0.268067 0.1436 0.355131 0.152123 0.013502 -0.149902 -0.138897 0.018651 0.113569 0.100902 0.097985 -0.28486 -0.301747 -0.099618 -0.312724 -0.080946 0.025557 -0.102848 0.111508 0.241874 0.055197 -0.147665 0.235693 -0.165352 -0.175941 0.031104 0.053314 0.066054 0.061178 -0.657572 0.372608 -0.675541 0.201804 -0.386935 -0.309161 0.291271 -0.371701 0.357723 -0.125886 0.074139 0.076759 -0.331219 -0.302009 0.088568 0.054373 0.119609 0.320467 0.244364 0.180976 -0.157831 0.038482 -0.081735 0.138981 0.290716 0.485183 0.366343 -0.428807 -0.02501 -0.504412
forest -0.031977 -0.151578 -0.033137 -0.342738 -0.073801 -9.58E-4 -0.012912 -0.185687 0.184558 0.071966 -0.592716 0.022534 0.272348 -0.146828 -0.370801 -0.37084 -0.140535 0.451936 -0.00495 -0.106499 0.150038 0.158165 -0.532445 0.389264 0.25399 0.149398 -0.073221 -0.334946 -0.263258 0.144613 -0.357563 -0.112081 -0.112963 0.026593 -0.077976 0.014188 0.020584 -0.339513 0.0335 0.412765 0.328587 -0.107711 0.078967 -0.070716 -0.005732 -0.025317 -0.047739 0.19123 -0.333271 -0.068691 0.005979 0.104264 -0.066608 -0.209281 -0.130777 -0.145577 0.206986 -0.181446 -0.186921 0.255599 -0.254352 -0.0975 -0.202365 -0.211569 -0.190514 0.017635 0.525463 -0.142972 -0.152896 -0.061794 0.096485 0.30805 -0.309034 -0.06878 -0.143415 0.032562 0.083638 0.228348 0.100869 -0.225307 0.11598 0.010966 0.399105 0.39014 0.187643 -0.128235 -0.086833 0.131393 0.209983 0.229515 -0.169112 -0.275695 -0.283795 0.041152 0.191984 0.151129 -0.117149 0.203727 -0.109531 0.208908 0.250251 -0.401183 -0.203479 -0.218302 -0.1942 -0.375574 -0.00673 -0.369197 -0.232505 0.031158 0.211657 0.348665 -0.24021 0.134055 0.410294 0.007723 -0.043758 -0.122737 -0.030437 -0.03737 0.445975 -0.080692 0.293455 0.26516 0.056587 -0.069955 -0.056037 0.554279 0.250225 -0.480346 -0.46606 0.010349 0.078734 -0.193827 0.084932 -0.300664 0.119743 -0.403996 0.057755 0.414657 0.103367 0.290017 0.141309 0.024705 -0.350287 0.050081 0.15939 0.043025 0.124091 -0.019797 0.220228 0.101278 0.136827 -0.095715 -0.037821 -0.191186 -0.327707 -0.145712 0.172301 0.117114 -0.036565 0.193366 -0.046615 -0.189059 -0.120429 0.081363 -0.159436 -0.271313 -0.140042 0.05176 -0.107486 0.701112 -0.105961 -0.05673 -0.283424 0.35096 0.254336 -0.348242 -0.349934 -0.241268 0.045504 -0.175236 0.26034 0.024474 -0.514999 -0.147625 0.005412 0.485763 0.118823 0.534601 -0.306852 0.044343 -0.468499 0.416416 0.129266 -0.001241 0.110812 -0.15754 -0.127704 -0.363462
abuse -0.052419 -0.12735 0.167481 -0.009232 0.196931 0.279643 -0.33048 0.034611 -0.284081 -0.254134 -0.252721 -0.345327 0.187661 -0.621608 -0.088841 0.070024 0.220578 0.05096 -0.243367 0.396818 0.20368 0.398602 -0.476947 -0.019796 -0.181618 0.20264 -0.198271 0.308665 -0.449144 0.01438 -0.168111 0.218348 0.106372 0.218536 0.188189 -0.259944 0.571051 -0.411417 0.15087 0.199516 0.006957 -0.104651 -0.211654 -0.3373 -0.184124 -0.199461 -0.177842 0.147389 -0.019372 0.118294 0.240088 -0.058882 -0.062993 -0.23664 -0.053655 0.213561 -0.121045 0.690918 -0.555278 -0.163624 0.168325 -0.195797 -0.018808 -0.54389 0.365632 -0.108138 0.063778 -0.517323 -0.002882 -0.191023 -0.208941 -0.243443 0.099679 -0.172592 0.162526 0.44028 -0.116529 0.235486 -0.076059 -0.035941 -0.255242 0.352369 -0.03295 -0.039613 -0.020911 -0.452924 0.184353 0.434716 -0.006126 0.055929 0.083074 0.49843 -0.302721 0.040958 0.047952 0.06925 0.235064 -0.23355 -0.092009 -0.086782 0.369283 0.165679 0.129085 0.44993 0.52904 -0.100037 0.439414 -0.004783 0.05136 0.008762 -0.424854 0.227883 0.022419 -0.140859 0.569646 0.102596 -0.110491 -0.060592 -0.619939 0.365773 -0.296731 -0.161861 -0.062384 0.016222 0.177391 -0.025061 0.26579 -0.081737 0.558462 -0.266383 0.057469 0.261164 0.124211 -0.175739 0.133284 0.43078 0.825446 -0.262635 0.002857 0.188527 0.035094 -0.263942 -0.136272 0.209589 -0.172543 -0.193787 0.30364 0.339957 0.562145 -0.179941 -0.223766 0.367383 -0.135436 0.139661 -0.05406 -0.100222 -0.25035 -0.171611 -0.147971 0.0765 -0.211547 -0.130333 0.056441 -0.065536 0.227075 -0.308971 0.050072 -0.130966 0.004309 0.048976 -0.253718 0.332809 -0.177454 -0.421014 -0.18058 -0.405308 -0.080572 -0.044491 -0.260575 -0.164662 -0.071123 0.121177 0.313089 -0.383406 0.121283 0.082912 -0.267218 -0.026426 0.049524 -0.097754 -0.059715 -0.73845 -0.065998 0.277202 -0.014513 0.406821 0.294173 -0.425088 0.215262 0.086908
criterion -0.064741 -0.00555 -0.114245 -0.120201 0.13739 -0.128744 -0.308502 0.09452 0.064694 -0.073156 -0.120607 -0.057446 0.038707 -0.163073 -0.120425 0.092255 0.024595 0.302843 0.080096 0.013144 -0.043783 0.067837 -0.155888 0.019346 0.016489 -0.136405 -0.01351 -0.057304 -0.105068 0.048382 -0.030559 0.0353 0.003 0.043097 0.044005 -0.00662 0.067761 -0.190956 -0.039473 0.00203 -0.143843 0.018689 0.195087 -0.129305 -0.042552 -0.19714 -0.020061 -0.133719 0.192418 0.006562 0.030625 0.106083 6.61E-4 -0.057416 -0.027183 0.029969 -0.156376 0.014973 -0.159706 0.067446 0.145559 0.019288 -0.09645 -0.287735 -0.097937 -0.096402 -0.170951 -0.03363 0.202056 -0.144767 0.036926 -0.067235 -0.223296 0.005574 -0.223723 -0.094821 0.194554 -0.061365 -0.08598 -0.224147 -0.142121 0.062143 0.015629 0.025449 -0.179688 -0.08231 0.170703 0.117515 -0.069091 -0.078629 0.192402 -0.097898 -0.171016 -0.026689 0.259088 0.12979 -0.082118 0.280913 0.016485 -0.303564 -0.065672 0.194527 -0.072558 0.037701 0.226578 -0.107992 0.085788 0.004713 -0.014336 -0.140713 -0.006451 0.030167 -0.092473 0.111023 0.100365 0.12623 -0.091555 0.031278 -0.067259 -0.133085 0.030958 -0.024617 -0.019944 0.097496 -0.211198 -0.064999 0.246839 0.218316 0.207857 -0.298947 -0.03719 -0.041267 -0.065951 -0.22116 0.061139 -0.252402 0.164305 0.161036 0.008025 0.061982 0.093059 0.016473 -0.189705 0.102849 -0.111555 -0.05319 0.257601 -0.096825 0.114807 0.143782 0.065013 -0.098227 0.080039 0.05338 0.09125 0.240045 -0.054772 -0.260729 -0.133753 -0.039878 -0.206776 0.105741 0.089482 -0.156485 0.115692 -0.082293 -0.10539 -0.08892 0.082285 0.025848 -0.141498 0.297767 -0.021606 0.06384 0.042187 0.041376 0.027926 0.095291 0.122029 -0.016385 0.170241 -0.028934 0.069665 -0.14563 -0.052285 0.177478 0.091172 0.080095 -0.013162 0.047339 -0.068296 -0.069537 0.024569 0.160716 -0.079468 0.036349 0.040501 -0.0799 0.017241 -0.264969
sea 0.140822 -0.337464 -0.162849 -0.073138 -0.15035 -0.092623 -0.055407 -0.003458 0.102115 -0.179987 -0.33903 0.111338 0.472032 -0.285785 -0.144258 0.141659 -0.257255 0.046858 -0.090167 -0.167013 0.125781 0.368942 -0.273086 0.378271 0.061764 -0.252369 -0.107937 -0.258506 0.178926 0.049624 -0.515856 0.255698 -0.362895 0.135006 0.214006 0.149726 0.174303 -0.140623 0.144674 0.323105 0.126444 0.208559 0.144086 -0.108924 -0.019823 -0.036284 0.217362 0.284991 0.364253 -0.012431 -0.00163 0.396573 -0.406642 -0.2566 0.024802 -0.30947 0.25607 -0.272265 0.181616 0.194504 -0.369821 0.181822 0.179333 -0.239618 -0.386997 0.063683 -0.06058 -0.065498 0.211821 -0.280454 0.30694 -0.005525 -0.074433 -0.366082 0.052284 0.112733 0.472687 0.068547 0.029965 -0.303427 -0.193424 0.181773 0.248409 0.146715 -0.040264 0.119521 0.121763 0.397186 0.048541 0.04641 -0.241077 -0.388362 -0.177645 -0.162658 0.098947 0.488545 0.014885 -0.042931 -0.288457 0.031937 0.266251 -0.240216 -0.122818 -0.144128 0.010902 0.018275 -0.266147 -0.100786 0.180805 0.138372 0.015851 0.052512 0.034788 -0.247394 0.245099 -0.205206 0.131584 -0.58426 0.242055 0.117355 0.527788 -0.015324 0.284777 -0.155321 0.045064 0.067198 -0.275986 0.430289 0.085251 -0.414915 -0.427998 -0.37444 0.119932 -0.030058 -0.378177 -0.344424 -0.025154 -0.026658 0.501881 0.183516 0.327403 -0.397429 -0.15252 0.032986 -0.156628 0.031312 0.20425 0.615249 -0.030216 -0.22713 0.162133 0.124568 0.056185 -0.287872 0.003332 -0.141173 -0.12065 -0.099786 -0.059685 0.41425 0.009392 -0.170855 -0.129188 0.008617 -0.330933 -0.326243 -0.146579 -0.214494 -0.200163 0.244456 -0.134006 0.701225 -0.150649 0.087024 -0.504629 -0.018797 -0.088588 -0.153185 -0.772395 0.112819 0.140313 0.04497 -0.158812 0.009635 -0.209095 -0.074004 0.018088 0.519352 0.308363 0.48345 -0.714792 0.251433 -0.300971 0.371729 0.120874 -0.002947 0.338815 -0.213491 -0.570617 -0.446894
dollar 0.261688 -0.215376 -0.164115 0.002232 0.249271 -0.138896 -0.670698 0.127827 -0.29101 -0.11645 -0.218684 -0.417769 0.039317 -0.317849 -0.002961 -0.029735 -0.018973 0.23425 -0.36192 -0.125295 -0.060739 -0.204878 -0.256528 0.027367 -0.177796 -0.543816 -0.005937 -0.198773 -0.038927 -0.190829 -0.2185 0.365661 -0.628841 0.20088 0.090975 -0.0908 0.129646 -0.01307 -0.046903 -0.092232 -0.252476 -0.294366 0.494408 0.179576 -0.00541 -0.05547 -0.36532 0.027226 0.090303 -0.210262 -0.406599 0.321992 0.265116 0.087013 0.185398 -0.244975 -0.09464 0.160291 0.223946 0.236668 -0.351719 0.434345 0.0126 -0.018035 -0.200447 0.039285 -0.172324 -0.346445 -0.204324 -0.010364 -0.07038 0.111224 -0.376602 -0.177543 -0.228692 0.639424 0.03423 -0.61685 0.235422 -0.412793 -0.253485 0.163072 0.120941 -0.541267 -0.495471 0.131275 0.079091 0.430157 0.50735 0.172057 -0.066668 0.007168 -0.254425 0.20992 0.057411 -0.176532 -0.112311 0.218955 -0.750334 0.001451 -0.270454 -0.015607 0.130168 -0.799218 0.19615 -0.358413 0.166241 0.565846 0.09191 -0.073406 -0.175443 0.13399 -0.370668 0.079062 0.36719 0.027787 0.067946 0.223226 0.205105 0.021642 0.103975 -0.002238 -0.015264 -9.36E-4 0.08817 -0.025495 -0.027109 0.077963 -0.241084 -0.212092 -0.20647 0.127164 0.133945 -0.015923 0.330293 -0.137472 0.672363 -0.284243 -0.215907 -0.091884 -0.092041 0.095502 -0.788597 -0.107355 -0.028638 0.043757 -0.423384 -0.121659 0.248273 -0.033753 0.569478 0.435842 -0.119061 -0.343906 -0.148977 0.022848 0.163389 0.348661 0.393028 -0.381444 -0.133944 0.178826 -0.394031 -0.346816 0.116654 -0.467532 -0.17654 0.126517 -0.006086 -0.198704 0.388625 0.596274 -0.528422 0.044528 -0.39122 -0.722628 0.05374 0.034891 0.114009 0.011156 0.11342 -0.012787 -0.06761 -0.241721 -0.095079 0.006568 0.001581 -0.051005 0.237711 0.23944 -0.503623 0.494871 -0.16607 0.249925 0.349698 0.123289 -0.086853 -0.697458 0.207363 -0.47008
example 0.015894 -0.031249 -0.02699 -0.148904 0.03531 0.147236 -0.094296 0.212639 0.172149 0.105559 -0.117804 -0.096904 0.031762 -0.228608 -0.1927 0.356972 0.227117 0.288514 -0.019993 0.24456 0.289846 -0.027444 -0.065703 0.173211 0.099732 -0.345352 0.011572 -0.01657 0.156497 0.275822 0.048878 0.006823 -0.168099 0.132965 -0.12847 0.189843 0.246542 -0.246577 -0.301799 0.243236 0.087262 0.101833 0.195758 -0.167191 0.308767 -0.142302 0.24632 -0.042954 -0.034573 0.048045 -0.068014 0.219567 -0.061692 0.080225 -0.042861 0.020484 -0.008544 0.038084 -0.154299 0.047317 -0.106538 0.061787 -0.190573 -0.359977 0.297817 0.006883 0.009467 -0.036403 -0.280603 0.003711 0.058643 0.12341 -0.259905 0.187293 -0.118101 0.127016 -0.073651 -0.313806 -0.016816 -0.186436 0.048584 0.321658 -0.204203 0.239573 -0.178139 -0.052785 0.170648 0.191916 -0.119069 0.004713 0.013371 -0.121808 -0.222814 -0.064115 -0.019169 0.17132 -0.134783 0.051844 -0.109535 -0.151278 -0.001723 0.108022 0.151955 0.125804 0.394235 -0.139787 0.029825 0.186652 -0.225747 -0.188624 -0.079277 -0.104137 -0.224555 -0.055799 0.283212 -0.155739 -0.351806 0.01827 0.135887 -0.01647 -0.046163 -0.068287 0.021803 0.111296 -0.049981 -0.188259 0.346788 0.051156 0.107187 -0.107482 -0.239015 -0.018471 -0.089058 -0.151546 0.255873 -0.302902 0.088422 0.032598 -0.314405 -0.01296 0.145992 0.065827 -0.172668 -0.05381 -0.108534 -0.106201 0.527812 -0.07751 0.126274 -0.077894 0.019413 -0.142993 -0.112075 0.042373 -0.021668 0.246419 -0.223138 -0.071009 0.032073 -0.201178 -0.029452 0.236769 -0.020794 0.006125 0.378769 0.229517 -0.172947 -0.233349 0.200009 0.11369 0.034428 0.429948 -0.044516 -0.100853 -0.157807 -0.088156 0.018592 -0.207324 0.019308 -0.152369 -0.057793 -0.057558 -0.12305 0.020583 0.12688 0.230534 -0.034688 -0.141144 0.059179 0.132281 -0.320622 -0.109596 0.006907 0.195325 0.018758 -0.024016 0.051745 -0.423243 -0.00823 -0.44639
journal -0.185312 0.696356 -0.139526 0.285734 -0.197892 0.011699 -0.521798 0.30967 0.065797 0.005462 0.232707 0.117162 -0.299046 -0.52432 0.069873 0.510328 -0.225606 0.14301 -0.204262 -0.511876 0.189276 0.139419 -0.238012 0.078019 0.058373 0.028371 -0.288391 -0.375179 0.375342 -0.16612 -0.228788 0.276334 0.028571 0.168764 0.362803 -0.395654 0.076254 -0.428929 0.006171 0.445767 -0.059251 0.220304 0.349893 0.201893 0.11069 -0.330263 0.431261 -0.221702 0.269896 0.508551 0.4154 -0.294689 -0.40674 -0.063673 0.069261 0.254936 0.049274 -0.133581 -0.314693 0.083194 -0.35414 0.180691 0.053583 -0.197236 0.015366 0.119572 -0.452368 -0.145008 0.247362 -0.510206 0.606599 -0.236518 -0.192054 -0.461016 -0.375221 -0.096488 0.089488 -0.047891 0.330943 0.009149 -0.210679 0.417843 0.135066 0.212786 -0.52236 0.280787 0.494433 0.05259 -0.444685 0.075997 -0.463555 0.222811 -0.423507 -0.125602 0.63583 -0.225634 0.242768 0.254285 0.149364 -0.131487 -0.088677 0.22138 -0.22515 -0.064358 0.470946 -0.368339 -0.133027 -0.194641 -0.051979 -0.17935 0.189253 -0.169835 0.072454 0.461585 0.432043 -0.701135 -0.316961 0.071267 0.017543 0.162805 -0.218206 0.604463 0.112726 0.418809 -0.0072 -0.246449 -0.433731 0.380334 -0.022968 -0.636058 0.038057 0.506301 -0.653925 0.16199 0.149446 0.21969 0.546455 -0.136265 -0.35812 0.504184 -0.06706 -0.174373 -0.101491 0.557284 -0.233234 0.024594 0.358787 -0.242227 0.019211 -0.140048 0.143232 0.164776 -0.255287 0.112544 0.025351 0.096763 -0.403391 -0.099799 -0.505958 -0.250189 -0.258452 0.722068 -0.15503 -0.036914 -0.053762 0.028583 -0.40115 -0.217417 0.293604 0.350127 -0.315671 0.520377 -0.482616 0.023537 -0.356656 0.417482 -0.006584 0.073409 -0.775309 -0.019864 0.415747 0.149698 0.243362 0.400277 0.104956 0.032264 -0.112127 0.50425 0.168905 -0.199207 -0.040986 -0.32868 -0.448137 0.569085 -0.226478 0.111021 0.33569 -0.015918 0.031408 -0.227848
laundering 0.155896 -0.309425 0.327002 -0.051343 0.251263 0.47846 -0.750341 0.164316 -0.065083 -0.098172 -0.202473 -0.544263 0.004062 -0.305933 0.258 0.157127 0.201391 0.497988 -0.177662 0.259492 -0.120686 0.249401 -0.372645 -0.006868 0.516943 -0.301384 -0.198267 -0.130513 -0.827471 0.146214 -0.17364 -0.150397 -0.329616 -0.072884 -0.015591 -0.580785 -0.037844 -0.250315 0.193379 0.373213 0.179019 0.234127 0.271223 0.337455 -0.075082 0.218888 -0.092113 0.393422 0.193994 -0.065503 0.104404 0.420998 0.136745 -0.005998 0.111125 -0.054563 -0.274298 0.701649 -0.218364 -0.419296 -0.072435 -0.529526 -0.360457 -0.211985 0.091996 0.370025 -0.143814 -0.002502 -0.077155 0.293363 -0.088432 0.162588 -0.062192 -0.361285 0.103112 0.226641 -0.346454 -0.500197 -0.375923 0.14275 -0.164825 0.572815 0.282254 0.164809 0.136108 -0.328323 0.654152 0.068341 -0.180919 -0.002098 0.121592 -0.340097 -0.002139 0.110364 0.26599 -0.001605 0.283105 0.205368 -0.34492 -0.137328 0.283074 0.136036 0.070675 -0.292253 0.876725 -0.49753 0.324241 -0.076518 0.050026 -0.404212 0.041294 0.347124 -0.197581 -0.569029 0.083775 0.394114 0.376311 0.281962 -0.260967 0.322992 0.267784 -0.685114 -0.366621 -0.055448 -0.147746 -0.310196 0.400325 0.462045 0.447608 -0.130859 -0.304347 0.242056 -0.025696 0.128814 -0.240002 0.338912 0.410761 -0.120114 -0.061512 0.119636 0.047548 -0.352778 -0.262747 -0.023554 -0.221776 -0.186008 -0.370456 -0.221451 0.236522 -0.02524 -0.082725 0.230643 -0.272551 -0.1558 0.04503 -0.271888 0.175999 -0.07895 0.306648 0.161462 -0.458424 -0.055652 0.053009 -0.231985 0.065868 -0.376272 0.2444 -0.342592 -0.023857 0.153715 -0.409346 -0.002173 -0.164013 0.203517 0.181006 -0.258659 0.208061 0.008038 -0.120394 0.414832 -0.112678 -0.109775 -0.23449 -0.091638 0.159449 -0.494405 -0.135503 -0.0618 0.094956 -0.220418 -0.105157 -0.645245 -0.371133 0.200872 -0.011152 0.197012 -0.027887 -0.563913 0.464942 -0.127775
hotel 0.214457 0.181296 0.179019 -0.143426 0.252316 0.202462 0.11495 0.035557 0.502527 -0.213481 -0.216102 -0.250712 0.200744 -0.432005 -0.109061 0.11204 -0.307224 0.190399 -0.042129 -0.113692 0.199367 0.143823 -0.089875 0.149806 -0.150105 -0.120927 0.011299 0.078827 -0.052802 0.058404 0.004048 -0.071349 -0.383527 -0.145628 0.029215 -0.01525 0.180419 -0.068474 -0.319098 -0.1344 -0.023358 -0.302704 0.232736 -0.037795 0.200493 0.238728 0.267238 0.316574 -0.080753 0.048317 -0.10597 0.009046 -0.083695 -0.017653 0.11595 0.394703 0.08383 0.39708 -0.137384 0.446113 -0.273323 -0.159791 -0.142612 0.034892 0.055968 -0.371856 0.026554 -0.090732 -0.15192 -0.435121 -0.064505 0.587952 0.097802 0.319857 0.021851 -0.004568 0.330307 0.031686 -0.336728 -0.184398 -0.342129 -0.115235 -0.058199 0.131852 0.294384 0.06615 0.028746 0.161509 -0.061647 -0.154362 -0.179693 -0.314096 0.034529 0.157528 -0.067836 -0.095199 -0.051848 0.343218 0.380956 -0.004231 0.297457 0.058064 0.00968 -0.152147 0.37421 -0.183817 0.116299 0.446693 0.15256 0.145801 -0.317949 -0.059227 0.026408 -0.200581 -0.131535 0.064405 -0.058865 -0.131405 -0.044806 -0.091985 0.245612 -0.151712 -0.169154 0.085143 -0.099381 0.29754 -0.015339 0.426702 0.223689 -0.234627 -0.837966 -0.386773 0.133361 0.186532 -0.088642 -0.125736 -0.186039 0.251146 -0.174328 -0.02582 0.20222 0.239503 0.084904 0.084374 -0.097755 -0.056321 -0.286752 0.172181 0.144004 -0.008211 -0.128246 0.300114 -0.535151 -0.147176 -0.07347 -0.13209 -0.067961 0.171321 0.061852 0.143343 -0.779456 -5.54E-4 -0.033991 0.079557 0.020463 -0.045722 0.212756 0.301071 -0.220724 0.39264 -0.255791 0.117963 -0.328227 0.212258 -0.19916 -0.126695 0.461922 -0.075817 0.112297 -0.101088 0.063331 -0.190343 -0.330298 0.072985 -0.058684 -0.146424 -0.146299 0.410106 0.044909 0.245211 -0.31694 0.325501 -0.386651 0.303434 0.094145 -0.001531 0.381923 -0.469319 -0.231117 -0.460827
term 0.171065 -0.112367 0.276295 -0.104753 0.307447 0.041295 -0.749477 0.189212 -0.021574 -0.381396 -0.012832 0.046418 -0.136669 0.36117 -0.024884 0.186275 -0.116164 0.255899 0.132502 -0.15006 0.05572 0.164724 -0.28553 -0.581332 0.090599 -0.441608 0.004603 0.400437 -0.345329 0.494411 -0.109253 0.053653 -0.293493 0.158739 0.051936 -0.199972 0.101642 0.239213 -0.167543 0.030451 -0.282764 0.202205 0.167721 -0.245623 -0.125564 -0.374298 0.289 -0.145979 -0.137704 -0.320787 0.179144 0.268858 0.089786 -0.105951 -0.341101 -0.150573 -0.50792 -0.01927 -0.401054 -0.008395 -0.484963 -0.046019 -0.351798 -0.381563 -0.174572 0.028229 -0.207854 -0.186803 -0.049799 -0.134151 0.113847 -0.027246 -0.008958 -0.207448 -0.301439 0.451653 0.526508 -0.112002 -0.106147 -0.584862 0.155482 0.385148 -0.12361 0.051753 -0.081416 -0.242652 0.637369 -0.121763 0.301962 0.116804 0.094765 -0.640512 -0.067622 0.070212 0.099854 -0.095118 0.054775 -0.129076 0.194495 0.097352 0.244743 -0.118064 0.218811 -0.119161 0.431676 -0.161796 0.154174 0.300129 0.026634 -0.047058 0.172336 0.321471 -0.677703 -0.114598 -0.065189 0.119191 0.059193 0.24333 -0.265089 -0.114617 -0.017482 -0.169048 -0.103995 0.050619 -0.24968 0.044319 0.225933 0.381169 0.44277 -0.292597 0.10623 -0.142958 0.050155 0.376611 0.264086 -0.362356 0.088976 0.276847 -0.371152 0.326849 -0.024056 0.23276 -0.20377 0.311563 0.063063 -0.610518 0.266828 0.011378 0.1896 -0.058791 -0.050844 -0.177813 -0.084645 -0.018213 -0.384852 0.261437 -0.326853 -0.524436 0.107339 0.004687 -0.263504 -0.556777 -0.067274 0.019184 -0.101634 -0.120899 -0.13244 0.066937 0.20816 -0.393895 0.088969 0.202663 -0.144449 -0.137382 0.058088 -0.039075 -0.355054 0.260003 0.0015 0.187811 -5.7E-4 0.222223 -0.03208 0.1103 -0.09341 -0.008776 -0.015939 -0.110731 -0.321362 0.084614 -0.048755 0.017101 -0.210602 -0.100293 -0.026535 0.272344 -0.059601 0.196834 0.173917 -0.080058
listing 0.02576 0.115452 0.140438 -0.152606 0.093575 0.245127 -0.533765 0.314507 -0.095069 0.140834 -0.200906 -0.448707 -0.118783 -0.477462 1.52E-4 -0.098571 -0.286432 0.435391 0.012546 0.028429 0.208833 0.12058 -0.07023 -0.083222 0.119094 -0.445898 0.008097 -0.11117 -0.046587 0.196266 -0.102199 0.184379 -0.170822 -0.011936 0.33756 -0.249174 -0.028495 -0.053448 -0.168983 -0.00197 -0.118 -0.128096 0.028352 0.159215 -0.026373 0.019295 -0.082649 -0.020265 -0.318195 -0.177176 0.196882 -0.004479 0.289493 -0.251619 -0.25065 0.206909 -0.366237 0.113603 -0.39113 0.20132 -0.023442 0.404843 -0.034317 -0.119754 -0.023572 -0.102618 -0.20292 -0.075902 0.060531 -0.195067 0.302204 0.206487 -0.047485 -0.192607 -0.188747 0.017445 -0.205004 -0.499429 -0.067685 -0.023218 -0.458561 0.077254 0.107393 -0.118319 -0.047068 -0.171015 0.086083 0.123064 -0.303997 0.275681 2.8E-4 -0.114836 -0.251199 0.054816 0.10207 0.152996 0.169625 0.249519 0.28029 0.260246 0.254544 0.321089 0.027048 -0.374839 0.171649 0.191762 -0.030637 0.121442 0.059035 -0.258172 -0.053342 -0.161578 -0.053107 0.130374 0.231722 -0.090504 0.185625 -0.06181 0.38512 -0.136735 -0.066342 -0.116576 -0.101503 0.128759 0.1041 -0.205391 0.028312 0.549285 0.023155 -0.588312 -0.08852 8.66E-4 -0.1132 0.283836 0.018023 -0.443237 -0.188518 -0.047647 0.067571 -0.110794 0.202375 0.177748 -0.090768 0.200087 0.208672 0.013805 0.17851 -0.175185 0.017195 -0.302046 -0.040385 0.042799 -0.199842 0.022327 -0.173857 0.442634 0.133454 -0.201223 -0.152064 -0.388745 -0.227015 0.239316 0.174312 -0.209482 0.181945 -0.11102 -0.297379 -0.203428 -0.302064 -0.323301 -0.338106 0.170474 -0.167114 -0.150578 -0.062045 -0.082545 0.191759 0.2025 0.159862 0.293201 0.027108 -0.320736 -0.489047 -0.369007 -0.294586 -0.254843 0.077215 0.339494 -0.155862 0.511326 -0.26204 0.103365 -0.129108 -0.11731 0.004151 -0.233149 0.338311 -0.569349 0.115731 -0.341597
chemistry 0.004025 0.303246 -0.104411 0.008706 0.15653 -0.162369 -0.072013 -0.04428 0.064746 -0.154108 0.019931 -0.34131 0.249319 -0.16621 -0.023629 0.068899 -0.072658 0.211239 0.158125 0.152757 0.318874 0.071808 -0.496936 0.172965 0.116607 -0.243701 -0.168935 -0.22234 0.342921 -0.511465 0.049946 0.04097 0.258996 -0.066825 -0.029254 -0.323353 0.109194 -0.046428 0.218379 0.076728 0.141522 0.034202 0.128096 0.033413 -0.096575 -0.254948 -0.00993 -0.167433 0.031287 0.071295 0.143355 0.09461 -0.113894 -0.044208 0.108895 -0.01746 0.107228 -0.042118 -0.072272 0.028349 0.308295 0.422358 -0.176708 -0.280315 -0.214609 -0.178076 -0.096455 -0.134709 0.106749 0.147295 0.250141 -0.384431 -0.425313 -0.196521 -0.366413 -0.085306 0.272873 0.115886 0.068063 0.137671 -0.130972 0.113199 -0.167658 0.171389 -0.192614 0.113986 0.136143 -0.19557 0.299885 -0.043349 -0.038521 -0.058072 -0.29324 -0.230846 0.291102 0.105152 -0.182363 0.388612 0.170832 -0.237939 -0.070258 0.064694 -0.332595 -0.08669 0.30574 -0.09231 -0.375732 9.95E-4 0.158368 0.030922 0.016062 0.270417 -0.473682 0.133673 0.13492 -0.238794 -0.207947 -0.194267 -0.226978 -0.034963 0.096327 0.190517 -0.039767 0.190246 -0.291204 0.241876 -0.120993 0.116062 -0.018703 -0.327277 -0.05592 0.339096 -0.182851 0.25082 0.287883 -0.050602 0.186154 0.057196 -0.096961 0.703254 0.442779 -0.297233 -0.125237 0.341855 -0.176811 0.05145 0.859417 0.164375 -0.25781 0.656808 0.318771 0.040441 -0.131532 0.303201 0.124184 0.225962 -0.305009 -0.047683 -0.160378 -0.05132 -0.235544 0.187898 0.047758 -0.042551 0.170703 0.133401 -0.105816 -0.133218 -0.011195 -0.004134 -0.384326 0.35993 0.036063 -0.158989 -0.178361 0.01281 -0.151561 0.239201 -0.11922 -0.291021 0.241637 -0.089662 0.133273 -0.05717 -0.120553 0.068934 -0.174056 0.066376 -0.033331 0.109787 -0.478339 -0.151861 -0.095925 0.274001 0.231926 0.168253 0.24275 -0.399068 0.044231 -0.230557
seafood 0.307887 0.123581 0.139824 -0.206658 -0.104712 0.04803 -0.370157 -0.146257 0.083492 0.19498 -0.182639 -0.396957 -0.057258 -0.537731 -0.568478 0.418628 -0.176772 0.468385 0.014367 -0.169936 0.190802 -0.079694 -0.169196 0.12284 0.155586 -0.193174 0.067842 -0.34895 0.06401 0.069137 -0.040489 0.139126 -0.137156 0.128658 -0.22719 0.092951 -0.130837 0.034379 -0.048704 0.064863 -0.186289 0.062701 0.396978 -0.209029 0.05506 0.033307 -0.026849 0.073692 0.334367 0.21893 0.271072 -0.003379 -0.176184 -0.136477 -0.055036 -0.112038 0.302201 -0.217292 -0.064202 0.197641 0.013249 0.085967 0.214753 -0.073296 -0.077531 -0.111275 -0.18348 -0.069358 -0.043404 -0.167732 -0.044798 -0.004689 -0.441145 -0.256579 -0.343034 0.024397 0.385838 0.129706 0.121568 -0.272181 -0.18255 -0.070683 0.113855 0.086658 -0.189047 0.112228 0.088911 0.250391 0.170337 0.105292 -0.067672 -0.242409 0.114603 -0.121464 0.217176 0.448503 -0.174898 0.519896 -8.36E-4 -0.09061 -0.008845 -0.289003 -0.240107 -0.376544 -0.030503 -0.006439 -0.043347 -0.023081 -0.092793 -0.194818 -0.200759 -0.09352 -0.453606 -0.044553 0.064828 0.039882 -0.459893 -0.029604 -0.068195 -0.122864 0.25402 -0.207968 0.22587 -0.17971 -0.164819 5.13E-4 -0.228216 0.312754 -0.264994 -0.073297 -0.27731 -0.030554 0.075993 -0.223475 -0.035766 -0.650555 -0.036064 0.096961 0.001293 -0.266964 0.237828 0.088735 -0.06117 0.05802 -0.003263 0.157246 -0.093266 -0.124925 0.102472 -0.228599 -0.179749 -0.032749 0.008399 -0.125526 0.239024 -0.100789 0.056549 -0.158212 0.118119 -0.030193 -0.540995 0.252135 0.156219 0.043308 -0.066995 0.04319 0.108856 -0.191734 -0.389083 0.106985 -0.168819 0.1861 -0.535424 0.001885 -0.200072 0.147428 0.016389 -0.109205 -0.154878 -0.048021 0.308178 -0.179599 0.022028 -0.317824 -0.433564 -0.255673 -0.24981 0.141909 0.09704 0.333183 -0.749487 -0.076231 -0.116687 0.344168 0.107054 0.261285 -0.043924 -0.547307 -0.171253 -0.363676
CD 0.050465 0.124136 0.523362 -0.113532 0.040579 -0.154444 -0.093098 0.203171 -0.218859 0.290639 0.072986 -0.151248 0.204773 -0.331661 0.176961 0.123819 -0.29447 -0.011728 -0.115122 0.155845 0.474792 -0.064735 0.310042 0.06403 0.140225 -0.333059 -0.063191 0.06074 -0.079771 -0.066621 -0.203054 -0.054195 0.177985 0.096345 0.264072 -0.25865 -0.019308 0.03818 -0.02184 -0.131724 0.190365 -0.417783 -0.018201 -0.128359 0.054853 0.001786 -0.051122 -0.023912 0.135785 0.052668 0.031247 0.180238 0.101857 -0.30461 0.172291 0.528342 -0.293408 0.170422 0.121594 -0.165287 0.292904 0.004096 0.339872 -0.091867 -5.16E-4 -0.133553 0.092269 -0.300028 0.199757 -0.459997 -0.145031 0.351126 0.051307 0.005369 -0.060713 0.403898 -0.193752 0.068416 -0.210201 -0.399492 -0.435634 -0.041089 0.118178 -0.316929 -0.055152 -0.408823 -0.103153 0.118784 -0.431716 0.170846 0.205231 0.049896 -0.430553 -0.085659 0.202004 -0.338124 -0.240341 0.902371 0.060629 -0.408009 0.109433 0.152701 -0.015213 0.116525 0.530317 -0.407057 0.153349 -0.120374 0.167661 -0.253837 -0.176251 -0.249513 0.062322 -0.190823 -0.014614 -0.245238 0.158012 0.049186 -0.37508 -0.29445 -0.132349 -0.023404 0.156607 0.072457 -0.145177 -0.146777 0.025156 0.211185 0.069661 -0.286249 -0.046375 -0.027824 0.162574 0.353467 0.336015 -0.36236 0.006961 0.008605 -0.070901 0.263347 0.470535 -0.204722 -0.365205 0.185036 0.160873 0.194605 -0.030064 -0.081044 0.150492 0.23602 0.104145 -0.012639 0.050636 0.02439 0.078411 0.00822 0.132923 0.218675 -0.136101 -0.376138 -0.278036 -0.064316 0.183282 -0.090313 0.161094 -0.03618 -0.117018 0.059228 0.136586 -0.045917 -0.215076 0.229157 -0.15481 0.36012 0.006735 0.055251 0.02496 -0.187158 -0.172787 -0.087111 -0.096294 -0.513346 -0.152909 -0.50487 -0.009891 5.62E-4 0.224385 0.036956 -0.064849 -0.071513 -0.14556 0.239807 -0.001037 0.210294 -0.226305 0.563973 0.173609 -0.082791 0.004928 -0.633642
mind -0.288412 -0.130152 -0.102556 -0.20239 0.025165 -0.338651 -0.155658 0.405327 -0.011476 0.114003 -0.12195 0.010492 0.059531 -0.161043 -0.29019 0.097018 -0.301373 0.237542 0.277142 -0.043557 -0.03435 0.218488 -0.332129 -0.008477 0.140407 0.091469 -0.09578 0.084213 0.102579 -0.058123 0.113517 -0.078192 -0.04942 0.09415 0.108934 -0.199734 -0.027413 -0.033997 -0.111918 0.138919 -0.197975 -0.372328 0.092063 -0.059274 0.143557 -0.183327 -0.047109 -0.031656 0.175162 0.064845 -0.0359 0.304859 -0.193003 0.059838 -3.7E-4 0.184861 -0.006549 -0.159791 -0.147718 0.22535 -0.099111 0.286394 -0.073777 -0.526033 -0.133036 0.398835 -0.386549 -0.180973 0.015806 -0.123771 -0.100763 0.132188 -0.027627 0.189376 -0.041745 -0.225452 0.467964 0.212854 -0.216686 -0.043216 -0.311741 0.095787 0.253274 -0.381014 -0.045209 -0.346356 -0.198364 0.152579 -0.344135 -0.214997 0.057653 -0.338578 -0.011536 -0.029992 0.104523 0.037966 -0.057405 0.125705 0.182395 -0.119909 -0.004492 0.176036 0.184563 0.061934 0.465898 -0.160614 0.152343 0.228141 -0.002279 -0.114768 -0.176291 0.04349 0.003127 0.202976 -0.069496 0.105497 -0.029299 0.307301 0.097831 -0.107107 -0.056967 -0.128792 0.102251 0.117378 -0.090274 0.067004 -0.009887 0.31727 0.309781 -0.048597 0.124059 -0.048303 -0.221597 0.107274 0.268595 -0.265347 0.035881 0.140348 -0.278333 0.407027 0.481601 -0.200953 -0.14194 0.374045 -0.14882 0.112238 0.521935 -0.018211 0.10892 0.069057 -0.117779 0.187183 0.219695 0.109716 0.126742 0.114019 -0.414318 0.05183 0.224028 0.335268 -0.303281 -0.138972 -0.157679 -0.067411 -0.117052 -0.129534 -0.298647 -0.097075 -0.110058 -0.294105 -0.327538 0.428569 0.046992 0.164727 0.127745 -0.051321 0.096875 0.074063 0.04518 -0.081125 0.092743 -0.217661 -0.032265 0.004055 -0.125372 0.321875 -0.152961 0.101753 -0.032164 0.187825 -0.058203 -0.117064 -0.040057 -0.099195 -0.078914 0.203236 -0.169769 -0.461549 0.075926 -0.226569
sex 0.245262 0.287609 0.15957 0.082412 0.053448 -0.138886 -0.052542 0.499043 -0.168637 -0.069837 -0.301023 -0.273347 0.23955 -0.580504 -0.212769 0.049824 0.26687 0.279305 -0.305791 0.360337 0.428874 0.235441 -0.500533 -0.175047 0.149276 0.496023 -0.477167 0.044788 -0.289054 -0.026817 -0.048085 -0.017413 -0.492835 0.502337 0.450064 -0.44946 0.581713 0.051712 -0.146215 0.639038 -0.111844 -0.246678 -0.231911 -0.0833 -0.229774 0.215072 -0.193382 -0.028448 0.184378 0.095108 -0.2296 0.142838 -0.016589 -0.223451 -0.150684 0.135341 -0.019674 0.119184 0.042706 0.132318 0.027508 -0.062089 -0.529833 -0.202423 0.327262 -0.212973 -0.244233 -0.456308 -0.193828 -0.40634 -0.164057 -0.084617 0.039203 -0.038727 0.081665 -0.064009 -0.114294 0.145867 0.084866 -0.350969 -0.231945 0.534725 -0.432589 0.093365 -0.1994 -0.382903 0.382954 0.381113 0.195462 -0.438064 0.073284 0.152001 0.021473 -0.093238 0.14174 0.25447 0.031935 0.300507 0.078587 -0.070141 0.459912 0.123127 0.54454 0.249561 0.419969 -0.324137 0.361598 0.105284 -0.108676 0.18592 -0.566141 0.457919 -0.066074 -0.00612 0.393815 -0.022924 0.002694 -0.435168 -0.361221 0.25694 0.041793 -0.043532 -0.12665 -0.207364 0.25178 0.170676 -0.037496 0.340992 0.372936 -0.430522 0.005735 0.02221 -0.175374 -0.306199 0.118297 0.349124 0.596621 0.052378 -0.009021 0.203278 0.249647 0.042324 -0.312496 0.45911 0.189644 -0.075955 0.042902 0.108199 0.372646 0.226877 -0.396373 0.293832 -0.009007 0.03297 0.19961 -0.011163 -0.370881 0.185399 0.012983 0.168033 -0.452956 0.09604 -0.107022 -0.409341 0.124228 0.166839 -0.041321 -0.242661 0.107878 0.068248 -0.113732 0.346624 -0.174698 -0.299578 -0.017874 0.135217 -0.162297 0.270082 -0.071226 -0.235837 -0.064082 -0.273982 -0.058784 0.028496 0.028116 -0.040263 -0.270563 0.250854 0.246996 0.393732 0.270779 -0.451381 -0.259689 0.266166 0.184813 0.315679 -0.074715 -0.324777 -0.040507 -0.24347
food 0.18904 -0.238262 0.583399 0.019749 0.051074 -0.053296 -0.532472 0.227401 -0.065112 0.16237 -0.562289 -0.170585 -0.028841 -0.610978 -0.470673 0.26284 -0.065883 0.14622 0.332752 -0.287286 0.125793 0.109313 0.044283 0.196887 0.149345 -0.142258 -0.005697 -0.273669 -0.180101 -0.080152 -0.127798 -0.099684 0.055171 0.484531 -0.007003 0.232578 -0.044931 0.016963 -0.168063 0.208331 0.090303 0.191828 0.149497 0.088444 0.14377 0.082126 0.024996 -0.123693 0.205542 0.36964 0.128615 0.113011 0.050554 0.123721 0.368053 0.185457 0.071661 -0.043291 -0.335299 0.078803 0.33488 -0.01006 -0.001248 -0.346214 -0.014327 -0.063673 0.085869 -0.386424 0.186537 -0.198619 -0.346718 0.108972 -0.319758 -0.417484 -0.128275 0.247097 0.785856 0.290068 -0.035451 -0.234439 -0.120013 0.298679 0.320699 0.089077 0.048148 0.25509 -0.022125 0.238906 0.327201 0.087733 -0.018654 -0.167813 -0.009289 0.014983 0.455241 0.309567 -0.017987 0.267862 -0.095707 0.207249 0.359324 -0.003897 -0.19249 -0.198457 -0.144492 0.017062 -0.334834 0.461205 -0.006431 0.087775 -0.10665 -0.009579 -0.274582 -0.004401 0.159513 -0.11488 -0.260778 0.048338 -0.242516 0.061787 0.123591 -0.518195 0.215552 0.048252 -0.252966 0.133736 0.131749 0.214513 0.008408 -0.045792 -0.374866 0.083357 0.370037 -0.126309 -0.113394 -0.311832 0.087975 0.323306 -0.168982 -0.099979 0.103295 -0.174968 -0.297127 0.145908 -0.123043 -0.066196 0.405728 0.006737 0.393245 -0.273692 0.498835 0.195957 -0.119921 -0.063517 0.073503 -0.167208 -0.184258 -0.13124 0.053865 0.045194 -0.634507 0.221824 0.074373 -0.400895 -0.134911 0.030223 -0.071212 -0.081298 -0.152241 -0.019669 -0.032147 -0.035431 -0.756277 -0.151758 -0.132981 -0.200624 -0.086908 -0.48769 -0.19137 -0.227113 -0.00603 -0.104082 -0.217652 -0.187784 -0.075856 -0.220685 -0.286149 -0.351713 0.293909 -0.072331 -0.512603 0.215901 -0.200329 0.377114 0.207082 0.071478 0.110922 -0.31065 -0.51175 0.093277
precedent -0.175016 0.119238 -0.498156 -0.055778 0.009884 0.040975 -0.260361 -0.177529 -0.134198 0.145367 -0.216647 0.20677 -0.011217 -0.146686 -0.444937 0.05976 0.222476 0.266468 -0.223226 0.405484 -0.27667 0.244156 -0.100378 -0.107044 0.101167 -0.427024 -0.168722 0.148178 -0.138426 0.096328 0.315775 0.083409 -0.251206 -0.109194 0.006688 0.003917 -0.014516 -0.13604 -0.1145 0.153603 -0.011936 -0.209285 0.154807 -0.026636 -0.347315 -0.356783 0.227856 -0.05259 -0.269841 -0.169796 -0.239957 0.091639 -0.044444 0.222655 -0.167634 -0.022225 -0.199434 0.195307 -0.350911 0.09386 0.335736 0.201907 -0.18125 -0.174398 0.19453 -0.151502 -0.241591 -0.379534 -0.065214 -0.008738 -0.080046 0.030793 -0.296536 -0.188544 -0.202962 0.262494 0.065093 -0.005688 -0.056751 -0.045355 -0.239307 0.159822 -0.07302 0.063082 -0.145522 -0.2318 0.15456 0.141628 -0.222637 -0.033527 -0.082199 -0.28793 -0.243882 -0.169898 0.192759 0.127484 0.030039 -0.008995 -0.066049 0.265639 -0.045353 0.09774 0.100044 0.212783 0.320475 0.079087 0.219985 -0.055009 0.028183 -0.20065 0.041361 0.228348 -0.19436 0.119328 0.008858 0.298091 -0.28899 0.374435 0.107261 0.024104 -0.076251 -0.104902 -0.047682 -0.174407 -0.308787 -0.520304 0.616562 0.448978 0.173308 -0.422386 -0.0396 -0.407509 -0.090109 -0.221984 0.18829 -0.258843 0.028357 0.075567 -0.074666 0.008397 0.331552 -0.25722 -0.185358 0.111847 -0.04464 -0.200905 0.494816 0.188495 0.33296 0.400823 0.026948 -0.00659 -0.055841 -0.020226 0.06737 0.307679 -0.111008 -0.148833 -0.04525 0.322541 -0.235516 -0.436828 -0.014098 -0.625596 0.105249 -0.159819 -0.218445 -0.270033 -0.248521 0.071305 -0.051093 0.52828 -0.097853 -0.147196 -0.07911 0.058458 -0.092244 0.374278 -0.096714 0.221941 0.148789 -0.037345 0.069084 -0.136863 0.167633 0.375369 0.333341 0.131344 -0.243881 -0.294496 -0.183006 -0.181548 -0.041309 0.195508 -0.06401 -0.005801 -0.224015 -0.259708 0.229606 -0.524202
series 0.011832 0.179432 -0.092313 -0.153477 0.141275 -0.379069 -0.4209 -0.124404 0.533852 -0.260415 -0.085787 0.015936 0.317741 0.149669 -0.029651 0.227779 0.288231 0.517104 -0.034431 0.198659 -0.170459 -0.172607 -0.04235 0.129076 -0.048313 -0.228838 -0.156771 -0.300399 -0.082813 0.020344 -0.064514 0.152258 0.015646 -0.151484 -0.046013 -0.210152 0.283369 -0.072092 -0.005553 0.247351 -0.167545 -0.229339 -0.350315 0.060633 0.056704 -0.268158 -0.017592 0.355391 0.014017 0.114554 -0.05022 0.354446 -0.041319 -0.025293 0.378919 0.064158 -0.321792 0.095173 -0.427928 0.44318 0.212009 -0.252775 -0.226115 0.125516 0.386391 -0.208044 -0.21225 0.169492 -0.196174 -0.395897 0.178563 -0.101646 -0.33648 -0.289372 0.043347 0.032447 0.112121 0.022723 -0.138064 -0.301731 0.040694 0.173614 -0.044242 0.108408 -0.149462 -0.45133 -0.282601 0.079128 -0.234455 -0.076432 0.061639 0.11496 -0.346579 0.402542 0.416182 0.060515 -0.158045 0.350659 -0.064759 -0.020289 -0.034927 0.199872 -0.157978 0.100236 0.277094 -0.322156 0.32238 0.106076 0.222771 0.064696 -0.551688 -0.200991 -0.12501 -0.070658 -0.159966 -0.024355 -0.090705 0.361767 0.056417 -0.21033 -0.508553 -0.104568 -0.041331 0.146494 0.178505 -0.04385 -0.004504 0.062429 0.16752 0.095205 0.100923 -0.262751 0.161054 0.183728 0.002176 0.026117 0.079646 -0.161604 -0.045201 0.172232 0.700985 -0.147813 -0.342744 0.192584 -0.100001 -0.55155 0.054357 0.15196 0.292329 0.305647 0.106447 0.275357 -0.062918 -0.215152 -0.153768 0.077893 0.129481 0.018594 0.091466 -0.290925 0.06572 -0.010899 -0.311068 0.180024 0.130653 -0.123645 -0.106415 0.129013 0.180686 -0.134835 -0.353274 -0.043555 -0.113886 0.195452 -0.023411 0.176564 -0.014111 0.070272 -0.152035 -0.401934 -0.177344 0.099004 0.017233 -0.289998 0.245856 -0.198204 -0.083953 0.118221 0.074977 0.108471 -0.489097 -0.180947 0.144813 -0.094074 0.266412 0.066145 0.127547 0.117477 -0.013176 0.091002
kilometer 0.020881 0.108267 0.190014 -0.242484 0.142436 0.034701 -0.111701 0.028337 0.167434 0.013739 -0.126222 -0.132798 0.126265 -0.129285 -0.120974 -0.187593 -0.110332 0.278135 -0.148824 -0.090235 0.123303 0.200251 -0.11496 0.206071 0.088841 -0.36455 -0.012069 -0.113437 -0.069881 -0.035501 -0.264053 -0.107317 0.034563 0.117056 -0.049797 -0.279926 -0.142189 -0.088153 -0.083855 0.053474 0.038328 0.022257 -0.052726 0.04076 -0.049928 0.028242 0.222077 0.104417 0.133362 -0.128864 0.090216 0.214978 -0.183188 0.212708 0.067894 -0.080337 -0.115114 0.109536 -0.17266 0.537923 -0.210807 -0.021967 -0.054266 -0.266846 0.065715 -0.023885 0.211941 0.061385 -0.107957 -0.250787 0.051452 -0.105271 -0.192988 0.015361 -0.075578 0.016647 0.120769 -0.306288 -0.131847 -0.286828 0.134132 0.131083 0.177298 0.010778 0.016902 -0.008995 0.056814 0.313283 0.153455 0.001924 -0.084584 -0.163686 -0.203498 0.181351 -0.007308 -0.175899 -0.050476 -0.12066 0.027667 -0.150934 0.275891 -0.159063 -0.006455 -0.20768 0.132712 -9.26E-4 -0.027885 0.05718 0.166112 0.017016 -0.023997 -0.116686 -0.251849 -0.023157 0.014394 -0.03284 0.013891 0.006696 0.054215 0.056048 0.227188 0.107944 0.017151 0.06548 -0.130881 -0.022574 -0.131095 0.338627 0.009738 -0.196333 -0.254727 0.110036 0.146251 -0.069699 -0.00729 -0.158359 0.016857 -0.237679 0.014706 0.294123 0.112911 0.054621 0.082903 -0.148936 0.027567 0.218108 -0.042735 -0.013298 0.100841 0.033268 0.125436 0.126709 0.0594 -0.08514 0.079405 -0.188932 -0.055826 -0.070538 0.028648 0.069272 0.085763 -0.076979 0.026471 -0.254928 0.036859 -0.081384 -0.364381 -0.269318 -0.17434 0.275753 -0.298893 0.314448 -0.079668 0.085302 -0.303532 0.128446 0.023061 -0.229069 -0.235512 -0.133746 0.172006 0.199557 0.116291 -0.084596 0.010892 -0.161415 -0.127301 0.178169 0.243243 0.250823 -0.304261 0.271478 -0.28483 0.178302 0.00901 0.354437 0.134146 -0.130326 0.058648 -0.236474
grocery 0.38024 -7.42E-4 0.587963 -0.24241 -0.079862 0.154365 -0.316206 0.418003 -0.082777 0.296888 -0.422597 -0.380928 -0.2278 -0.386138 -0.332977 0.376427 -0.284611 0.404895 -0.045605 -0.246338 0.060324 0.046806 -0.013674 0.087239 -0.023604 -0.402166 0.093106 0.067451 -0.133385 0.041427 0.086421 0.087311 -0.144565 0.537791 -0.247107 -0.07434 -0.191958 -0.080831 -0.222241 0.124359 -0.100245 -0.096484 0.305862 0.048533 0.266791 0.181834 -0.402659 -0.082123 0.256321 0.274823 0.284975 0.198133 -0.085046 0.066461 0.554005 0.542005 -0.076247 0.142767 0.053709 0.168625 -0.120199 0.100137 0.318484 -0.238756 0.029164 -0.102611 0.225948 0.100532 -0.053988 -0.022236 -0.406845 0.064395 -0.124116 -0.331982 -0.263293 0.175353 0.258357 0.232206 -0.072428 -0.349046 -0.130328 0.261455 -0.042677 0.061806 -0.202593 0.125404 0.07902 0.379905 0.145839 0.057557 0.027486 -0.226224 -0.049324 0.086341 0.31456 0.050083 -0.412339 0.36067 0.148523 0.02341 0.367154 -0.138068 0.090853 -0.116353 0.00227 -0.445093 -0.086133 0.310914 -0.104377 -0.163524 0.053628 -0.128915 -0.221596 -0.0044 -0.012705 0.192208 -0.067556 -0.047458 -0.073371 0.081728 0.14267 -0.050478 0.19071 0.007569 -0.067869 -0.077217 -0.161074 0.206273 -0.204053 -0.460573 -0.620577 0.024106 -0.022925 -0.036967 0.487861 -0.547858 0.293246 0.568888 -0.122425 -0.478792 0.154229 -0.021825 -0.013618 0.0615 -0.148681 0.124865 0.106689 0.015912 0.19883 -0.342227 0.093102 0.314186 -0.528666 0.05716 -0.103769 0.187345 -0.058038 -0.006784 0.163506 0.207852 -0.426714 0.406388 0.311885 -0.002413 -0.01247 0.088514 0.306461 -0.231578 -0.190889 0.098969 -0.154934 -0.330995 -0.607798 0.121947 -0.025191 0.101606 -0.1834 -0.223287 -0.120055 -0.151294 0.08978 -0.310348 -0.399607 -5.05E-4 -0.357823 -0.2023 -0.261416 0.013104 0.131844 -0.048941 -0.915095 0.144733 -0.21539 0.104191 0.195975 0.46123 -0.061027 -0.130151 -0.115619 -0.201648
wizard 0.058077 0.031747 0.093962 0.022652 0.069784 0.018099 -0.328564 0.164458 -0.061904 -0.046116 -2.53E-4 -0.055718 0.223924 -0.049394 0.017557 0.234502 0.022675 0.054708 -0.054807 0.202864 0.10299 -0.09411 0.102981 -0.005811 -0.032349 0.03337 0.027536 -0.010257 0.327604 0.005078 0.063978 -0.041337 0.042709 -0.233237 0.146937 -0.097238 0.135969 -0.126295 0.130959 -0.117847 -0.052246 -0.078734 -0.289145 -0.140916 -0.041302 0.022493 -0.132604 0.218928 0.184791 -0.012804 -0.107324 0.292427 -0.04619 -0.068776 0.079036 0.194516 -0.283172 0.043833 0.009402 -0.056818 0.095667 -0.069044 -0.154658 -0.327673 -0.02333 -0.010939 -0.109502 -0.420095 0.08264 -0.260281 0.009804 0.167591 -0.187965 0.032634 0.027348 0.165585 -0.010594 0.072751 -0.310447 -0.135739 -0.257615 -0.030771 0.046369 -0.02207 -0.193232 -0.121049 0.109266 0.16107 -0.246478 -0.053403 -0.113613 -0.050326 -0.233948 0.027999 -0.087773 -0.167928 -0.152906 0.685786 -0.051482 -0.632495 -0.019855 0.314266 -0.155184 -0.053702 0.364996 -0.378934 0.083321 -0.103413 -0.089795 0.067119 -0.341169 -0.086004 -0.187189 0.007182 0.134369 0.007017 -0.042176 -0.062393 -0.424207 -0.333887 -0.102235 -0.005633 -0.073244 0.009063 0.135658 0.097115 0.198163 -0.053397 0.360267 0.00226 -0.10702 -0.025521 -0.111022 -0.094595 0.085569 -0.252246 0.261018 0.014222 -0.099585 0.244937 0.451711 -0.017729 -0.08292 0.482136 0.257862 -0.016977 0.178567 0.169242 0.128482 -0.036996 0.030384 0.115582 -0.172091 -0.169709 -0.12314 0.184573 -0.107492 -0.04619 -0.01769 0.060089 0.044252 0.014774 0.032606 -0.193001 -0.065998 -0.212297 -0.124682 -0.073425 -0.022619 0.084108 -0.057185 0.179312 -0.086 0.13675 -0.106546 0.112663 0.088793 -0.216564 -0.160724 -0.236662 0.131583 -0.184446 0.081647 -0.110589 -0.027611 -0.144621 -0.116215 0.122122 0.325397 -0.110236 -0.204964 -0.073363 0.004888 0.222084 -0.030071 -0.066705 0.080696 -0.008243 -0.015903 0.148837
information -0.355415 0.130756 0.455069 0.325422 0.309262 0.061788 -0.435411 0.380782 -0.083969 -0.054865 -0.204924 -0.166346 -0.054521 -0.55937 -0.064085 0.350986 0.167088 0.341743 -0.107314 -0.071887 -0.167802 -0.006111 -0.339785 0.330363 0.046086 -0.08322 -0.137379 0.105809 -0.48775 0.056164 -0.092968 0.235414 -0.113211 0.010833 0.044775 0.181525 -0.397518 -0.224349 -0.044629 0.294316 -0.071688 0.075613 0.455035 -0.267656 0.353476 0.005241 0.311373 -0.243133 0.231603 -0.541523 0.116103 0.233932 0.31219 -0.032133 -0.223667 -0.132898 0.001908 0.265336 -0.221008 0.308799 -0.450472 -0.078858 -0.245578 -0.488866 0.076968 0.013092 -0.066449 0.185117 -0.123197 0.295514 0.212836 0.398157 -0.571819 -0.085944 -0.109986 -0.403033 -0.378687 -0.069042 -0.466281 0.016166 -0.109697 0.52189 -0.065949 0.039104 0.102499 -0.189687 0.269542 -0.061227 -0.097709 0.35273 0.202028 0.187998 -0.393092 0.256311 0.342109 0.103051 0.040863 -0.156579 -0.214444 -0.095508 0.227586 0.229617 0.199905 0.045201 0.294618 -0.204542 0.003193 0.334596 0.178389 -0.269225 -0.090386 0.208739 0.126505 0.362949 0.548314 -0.241062 -0.087095 -0.09486 -0.027691 -0.042675 -0.129656 -0.383517 -0.191435 0.351366 -0.499163 -0.080907 -0.057917 0.485864 0.163286 -0.54613 0.024617 0.17794 -0.294362 -0.128889 0.007024 -0.34887 0.11869 -0.076806 -0.049485 -0.148243 0.354509 -0.179436 0.264343 0.13622 0.015827 0.23379 0.460783 0.099249 0.041051 0.094037 -0.064585 0.1278 0.252636 0.258916 0.256002 0.133681 -0.176795 0.291287 0.046723 -0.363115 -0.316592 0.625459 0.277333 -0.245255 0.178907 0.101726 -0.173236 0.195714 -0.043282 0.309725 0.215137 0.126479 -0.021044 0.136174 -0.192842 0.012753 0.430914 -0.001211 -0.146693 -0.039051 -0.100693 -0.348957 -0.4121 -0.060993 -0.445778 -0.065374 -0.004011 -0.204552 -0.644956 0.006923 0.095119 0.023525 -0.12401 0.253944 0.010064 -0.107897 0.165255 -0.313884 -0.258105 -0.641476
Israel 0.088042 0.015853 -0.240175 0.116754 0.120353 0.014531 -0.422706 0.37353 0.171789 -0.112548 -0.660549 -0.333436 -0.455166 -0.414618 -0.080781 0.266531 0.500471 0.110496 -0.451733 -0.685098 -0.157863 0.07007 -0.148624 0.573252 0.1194 -0.202332 0.183321 -0.040955 -0.554459 -0.325364 -0.218831 -0.002009 -0.361229 0.35351 -0.057091 -0.43453 -0.037549 -0.454262 0.367868 0.506265 -0.067107 -0.536293 -0.070865 -0.093532 -0.405703 -0.088988 0.061204 0.082231 -0.173207 -0.137403 -0.13205 0.076915 -0.19544 0.367566 0.073424 0.200701 -0.293483 0.188637 0.041774 0.025397 -0.011615 0.443109 -0.360378 -0.537965 0.30035 -0.009916 -0.721754 0.523436 -0.287945 -0.191728 0.024912 -0.18155 -0.438683 -0.018758 -0.179669 0.222331 -0.193722 0.084023 -0.458571 -0.505553 0.045218 0.005252 0.140125 -0.337285 -0.139624 -0.242876 0.035888 -0.084342 -0.323662 -0.444915 0.209746 -0.359224 -0.260854 -0.192673 -0.116118 0.153036 -0.047649 -0.178463 0.141489 0.165908 0.101596 0.14075 -0.275251 0.119999 0.462665 -0.158741 -0.20839 -0.016209 0.271002 0.493122 0.283948 -0.084489 0.094352 0.356435 -0.149326 -0.104278 -0.402844 -0.066173 0.301702 -0.442938 0.243569 -0.331615 0.523756 -0.357402 -0.413222 0.615356 0.273839 0.376281 0.840436 0.359971 -0.09001 -0.346321 0.013307 0.367658 -0.076026 0.412447 0.132343 -0.293762 -0.043967 0.381141 -0.098984 -0.414221 -0.050604 -0.049995 0.23606 0.23867 -0.189097 -0.048043 0.133206 -0.226003 0.053859 0.231771 0.221541 -0.137039 -0.278646 0.303849 -0.021572 0.045947 -0.164532 -0.034485 0.005718 -0.115799 -0.00862 -0.65023 0.186914 -0.482283 -0.014085 0.002559 8.05E-4 0.147636 -0.023582 0.21773 -0.057339 -0.261654 -0.267202 0.03771 -0.351545 -0.121663 -0.137798 -0.025085 -0.260798 -0.042376 -0.059797 -0.016257 -0.237237 0.310927 -0.050936 0.21249 0.263863 -0.314143 -0.140353 -0.197542 -0.285713 0.194991 0.389043 0.643406 0.358042 0.039271 0.324747 -1.139766
brandy 0.073679 -0.01953 0.117304 -0.158111 -0.027204 -0.025429 -0.133958 0.092207 0.035732 0.224797 -0.19629 -0.086554 0.028437 -0.2497 -0.271072 0.187383 -0.174665 0.083858 -0.022566 -0.166416 0.301134 0.089972 -0.080679 0.088182 0.002402 -0.086989 0.096905 0.021697 0.061229 0.047847 -0.024434 0.090271 0.025333 0.030413 -0.148149 0.013221 0.017413 -8.77E-4 0.048416 0.036999 0.024922 -0.049214 0.100552 -0.081115 -0.006177 -0.177258 0.097823 -0.029833 0.25101 0.102227 0.162913 0.131784 -0.063673 -0.083938 0.01379 0.015036 -0.051318 0.003443 -0.052281 0.043383 0.010037 0.071319 0.064808 -0.218903 -0.008591 -0.051909 -0.13789 -0.19579 -0.050235 -0.176029 -0.016834 0.118212 -0.076546 -0.035366 -0.086827 0.194245 0.262189 0.03222 -0.004675 -0.21377 -0.092174 0.08418 0.032748 -0.107433 -0.018607 -0.124225 -0.096731 0.299008 0.117433 -0.10522 -0.011917 -0.132938 0.033681 0.001261 0.080961 0.123762 -0.224841 0.693378 -0.081212 -0.431693 0.095782 -0.102521 -0.034756 -0.22079 0.227371 -0.008642 -0.013193 -0.021952 -0.093381 0.001912 -0.178657 -0.064768 -0.15154 0.08598 0.002753 -0.010759 -0.084743 -0.149699 -0.113792 -0.057316 0.147969 0.036389 -0.018507 -0.027648 0.068242 0.083303 -0.061985 0.147569 0.003786 -0.073454 -0.02683 0.013004 -0.023117 -0.105377 0.07975 -0.224502 0.114967 0.040159 -0.059393 0.197056 0.384467 -0.107369 -0.221547 0.16089 0.005084 0.181545 -0.016504 0.283526 -0.065548 -0.176679 -0.101882 0.059568 -0.039931 -0.058444 0.146028 0.020833 -0.011628 0.034066 0.134491 0.042342 -0.021694 -0.05043 0.220147 -0.182299 -0.099497 0.001857 0.007753 -0.062161 0.005632 0.008605 -0.171806 0.274846 -0.106644 -0.044616 -0.111256 -0.006283 -0.037954 -0.224932 -0.183068 -0.061059 0.125055 -0.080575 0.214644 -0.040076 -0.006047 -0.046808 -0.066437 0.057907 0.223018 0.049813 -0.305852 -0.023394 -0.206768 0.215385 6.52E-4 0.228893 0.003518 -0.118256 -0.122776 -0.256278
